//Numpy array shape [150]
//Min -0.247937396169
//Max 0.231364965439
//Number of zeros 0

#ifndef B12_H_
#define B12_H_

#ifndef __SYNTHESIS__
model_default_t b12[150];
#else
model_default_t b12[150] = {-0.162462159991, 0.179148912430, 0.133468598127, -0.129932790995, 0.082781083882, -0.032415691763, -0.043144993484, 0.006337961648, 0.028765024617, -0.071442961693, -0.028394874185, -0.123534269631, -0.075091212988, -0.001367723336, -0.001264685881, -0.077599048615, -0.206368282437, -0.045199748129, -0.094222053885, -0.034305382520, -0.070596531034, 0.135915383697, -0.042317349464, -0.035352189094, 0.025440124795, -0.015515267849, -0.033473532647, -0.046066056937, -0.092433631420, -0.048455100507, -0.140028446913, -0.101902030408, -0.085898891091, -0.065858855844, -0.064267784357, 0.030294829980, -0.042047202587, -0.025697274134, -0.030069462955, -0.037968881428, 0.028439156711, 0.215788096189, -0.101028695703, -0.045564189553, -0.187814503908, -0.079023338854, -0.138650417328, -0.068616420031, -0.156073883176, 0.044476322830, -0.071219466627, -0.065091386437, -0.020983371884, -0.073780603707, -0.038798406720, -0.095544271171, -0.033183887601, -0.032024830580, -0.130192294717, 0.026086319238, -0.062317296863, -0.035878043622, -0.024624325335, -0.032692868263, -0.058542825282, -0.165863066912, -0.056392967701, -0.069491922855, 0.028683189303, 0.068653076887, -0.099173195660, -0.038627780974, -0.121094115078, -0.039440006018, -0.095204144716, -0.097677879035, -0.063362732530, -0.032276462764, -0.042565926909, -0.115177609026, -0.066045261919, -0.173799544573, -0.181324422359, -0.160600632429, -0.110920980573, -0.041079975665, -0.119773313403, -0.014050225727, 0.053904701024, -0.034558799118, -0.044772427529, -0.047081995755, -0.004764630925, -0.046051263809, -0.039955779910, -0.045497097075, -0.031753212214, -0.136248931289, -0.112351782620, -0.064432002604, -0.022506525740, 0.009204871021, 0.026633223519, -0.066066555679, 0.052945122123, -0.079042769969, -0.073853895068, -0.007686900441, 0.004689622670, -0.043934296817, -0.247937396169, 0.134697005153, -0.065533243120, -0.079193942249, 0.029275594279, -0.049195628613, -0.105985991657, -0.130305200815, -0.039154540747, -0.064779289067, -0.080564253032, -0.042419958860, -0.028992906213, 0.231364965439, 0.092249520123, -0.033350899816, -0.060458738357, -0.017774445936, 0.222284048796, -0.104173742235, -0.024715878069, -0.040603965521, 0.080203749239, 0.207998856902, -0.064204297960, 0.028952734545, -0.080411016941, -0.058835722506, -0.043768428266, 0.010117299855, -0.059052389115, -0.188657924533, 0.015941953287, -0.046031426638, -0.073018915951, -0.133035600185, -0.086464993656, 0.045555140823, -0.020031295717, 0.082921184599};
#endif

#endif
