//Numpy array shape [50]
//Min -0.229337632656
//Max 0.312711179256
//Number of zeros 0

#ifndef B6_H_
#define B6_H_

#ifndef __SYNTHESIS__
model_default_t b6[50];
#else
model_default_t b6[50] = {0.082663297653, -0.018098836765, -0.020470058545, 0.176377192140, -0.229337632656, 0.125922769308, 0.053925689310, 0.137673810124, 0.151022702456, -0.063541650772, 0.075140655041, -0.152290195227, -0.020450534299, -0.171782895923, -0.014112553559, -0.063291639090, -0.108484707773, -0.015924250707, 0.312711179256, 0.201730802655, -0.116340808570, 0.122439593077, -0.159084647894, -0.212408930063, 0.064066566527, -0.019600346684, -0.023191940039, -0.076992295682, 0.076998107135, 0.224685743451, -0.092929676175, -0.055050354451, -0.077677391469, 0.003541071666, 0.009825453162, -0.074442081153, -0.212846770883, 0.070238247514, -0.128581658006, 0.082171499729, 0.006116873585, -0.069956615567, -0.137763723731, 0.068666666746, 0.059358090162, -0.032604843378, 0.120693624020, 0.056266114116, -0.123941205442, -0.081277422607};
#endif

#endif
