//Numpy array shape [50, 150]
//Min -0.145854130387
//Max 0.260647743940
//Number of zeros 0

#ifndef W12_H_
#define W12_H_

#ifndef __SYNTHESIS__
model_default_t w12[7500];
#else
model_default_t w12[7500] = {-0.000000000000, 0.045816574246, 0.023886512965, -0.000000000000, 0.010996232741, 0.000000000000, 0.000000000000, 0.003964816220, 0.041718285531, 0.000000000000, -0.000711997971, -0.000000000000, -0.000000000000, 0.051660925150, -0.000000000000, -0.000000000000, -0.009272312745, 0.066952779889, -0.000000000000, 0.000000000000, -0.011787204072, 0.040781076998, -0.000000000000, -0.000000000000, -0.000000000000, 0.011415448971, 0.000000000000, -0.000000000000, 0.029918128625, 0.000000000000, 0.000000000000, -0.001172104850, -0.000000000000, 0.000000000000, 0.000007929683, -0.000004028213, 0.000000000000, 0.000000000000, -0.000000000000, -0.000000000000, -0.000000000000, 0.068584956229, -0.004953870550, 0.000000000000, -0.000777596957, -0.004155013710, 0.000487059238, -0.000000000000, 0.000000000000, 0.029474904761, -0.000000000000, -0.000000000000, -0.005557606928, -0.004799988121, -0.000000000000, -0.000000000000, -0.000000000000, -0.000000000000, -0.000000000000, -0.000000000000, -0.000000000000, -0.004334060941, 0.016545061022, 0.000000000000, 0.000000000000, -0.000000000000, 0.066654764116, -0.003239199985, -0.000000000000, 0.082438305020, -0.000000000000, 0.000797760382, -0.000000000000, -0.000000000000, 0.000000000000, 0.000000000000, -0.000000000000, -0.000000000000, -0.000000000000, -0.000000000000, -0.000000000000, -0.003565782448, -0.010806206614, -0.000657209486, -0.000000000000, 0.022006437182, 0.006353458855, -0.004492062610, 0.053634528071, 0.000000000000, 0.000000000000, -0.000000000000, -0.000000000000, 0.015010227449, 0.000000000000, -0.000000000000, -0.000000000000, -0.000000000000, -0.000000000000, -0.000000000000, 0.000000017236, 0.005167687312, -0.000000000000, 0.000000000000, 0.003555547679, 0.000000000000, -0.000000000000, 0.000000000000, 0.049854066223, -0.000000000000, -0.014062914997, 0.010722040199, -0.000000000000, 0.012571171857, -0.000000000000, -0.000000000000, 0.000000000000, -0.011148463935, -0.000000000000, 0.000000000000, -0.012627919205, -0.000000000000, -0.000000000000, 0.073682159185, 0.060349214822, 0.000020308913, 0.000000000000, 0.012546620332, 0.037139829248, -0.000646822155, 0.005405074451, -0.000000000000, 0.067214757204, 0.061662290245, 0.000000000000, -0.000000000000, -0.000000000000, 0.000000000000, -0.011035044678, -0.002035476267, 0.000000000000, 0.000007824208, 0.020673509687, -0.000000000000, 0.000000000000, -0.000000000000, -0.000000000000, -0.008990480565, -0.003125248011, 0.007315513678, -0.000000000000, -0.000000000000, -0.000000000000, 0.000000000000, -0.000000000000, -0.000000000000, -0.000000000000, 0.000000000000, 0.000000000000, -0.000000000000, -0.000000000000, 0.000000000000, -0.000000000000, -0.000000000000, -0.000000000000, 0.000000000000, -0.000000000000, 0.000000000000, -0.000000000000, -0.000000000000, 0.000000000000, -0.000000000000, -0.000000000000, -0.000000000000, 0.000000000000, -0.000000000000, 0.000000000000, 0.000000000000, -0.000000000000, 0.000000000000, 0.000000000000, 0.000000000000, 0.000000000000, 0.000000000000, -0.000000000000, 0.000000000000, -0.000000000000, -0.000000000000, 0.000000000000, 0.000000000000, -0.000000000000, -0.000000000000, 0.000000000000, 0.000000000000, 0.000000000000, 0.000000000000, 0.000000000000, 0.000000000000, -0.000000000000, -0.000000000000, 0.000000000000, 0.000000000000, 0.000000000000, -0.000000000000, -0.000000000000, 0.000000000000, -0.000000000000, 0.000000000000, -0.000000000000, 0.000000000000, -0.000000000000, 0.000000000000, 0.000000000000, -0.000000000000, 0.000000000000, -0.000000000000, 0.000000000000, -0.000000000000, 0.000000000000, 0.000000000000, -0.000000000000, 0.000000000000, 0.000000000000, 0.000000000000, 0.000000000000, -0.000000000000, 0.000000000000, -0.000000000000, 0.000000000000, 0.000000000000, -0.000000000000, -0.000000000000, -0.000000000000, -0.000000000000, 0.000000000000, -0.000000000000, -0.000000000000, 0.000000000000, 0.000000000000, 0.000000000000, -0.000000000000, -0.000000000000, -0.000000000000, -0.000000000000, -0.000000000000, 0.000000000000, -0.000000000000, -0.000000000000, 0.000000000000, 0.000000000000, 0.000000000000, -0.000000000000, 0.000000000000, 0.000000000000, 0.000000000000, -0.000000000000, 0.000000000000, -0.000000000000, 0.000000000000, -0.000000000000, -0.000000000000, -0.000000000000, -0.000000000000, -0.000000000000, 0.000000000000, 0.000000000000, 0.000000000000, 0.000000000000, -0.000000000000, 0.000000000000, 0.000000000000, 0.000000000000, 0.000000000000, 0.000000000000, 0.000000000000, -0.000000000000, -0.000000000000, 0.000000000000, -0.000000000000, -0.000000000000, 0.000000000000, 0.000000000000, -0.000000000000, -0.000000000000, -0.000000000000, 0.000000000000, -0.000000000000, -0.000000000000, 0.000000000000, 0.000000000000, 0.000000000000, -0.000000000000, 0.000000000000, 0.000000000000, -0.000000000000, -0.000000000000, -0.000000000000, 0.000000000000, 0.000000000000, 0.000000000000, 0.000000000000, -0.000000000000, -0.000000000000, 0.000000000000, -0.000000000000, -0.000000000000, -0.000000000000, 0.000000000000, 0.000000000000, 0.000000000000, 0.000000000000, 0.000000000000, 0.000000000000, -0.000000000000, -0.000000000000, -0.000000000000, -0.000000000000, -0.000000000000, 0.000000000000, 0.000000000000, 0.000000000000, -0.000000000000, -0.000000000000, -0.000000000000, -0.000000000000, 0.000000000000, 0.000000000000, 0.000000000000, 0.000000000000, -0.000000000000, -0.000000000000, -0.000000000000, 0.000000000000, 0.000000000000, -0.000000000000, -0.000000000000, 0.000000000000, 0.000000000000, 0.000000000000, -0.000000000000, 0.000000000000, -0.000000000000, -0.000000000000, 0.000000000000, -0.000000000000, -0.000000000000, 0.000000000000, 0.000000000000, 0.000000000000, 0.000000000000, 0.000000000000, -0.000000000000, -0.000000000000, -0.000000000000, 0.000000000000, -0.000000000000, 0.000000000000, 0.000000000000, -0.000000000000, -0.000000000000, 0.000000000000, -0.000000000000, 0.000000000000, 0.000000000000, -0.000000000000, -0.000000000000, -0.000000000000, -0.000000000000, 0.000000000000, -0.000000000000, 0.000000000000, -0.000000000000, -0.000000000000, 0.000000000000, 0.000000000000, -0.000000000000, 0.000000000000, 0.000000000000, 0.000000000000, 0.000000000000, -0.000000000000, -0.000000000000, -0.000000000000, -0.000000000000, -0.000000000000, -0.000000000000, -0.000000000000, -0.000000000000, -0.000000000000, -0.000000000000, -0.000000000000, 0.000000000000, 0.000000000000, -0.000000000000, -0.000000000000, 0.000000000000, -0.000000000000, -0.000000000000, 0.000000000000, -0.000000000000, 0.000000000000, 0.000000000000, 0.000000000000, 0.000000000000, -0.000000000000, 0.000000000000, -0.000000000000, -0.000000000000, 0.000000000000, -0.000000000000, 0.000000000000, -0.000000000000, -0.000000000000, -0.000000000000, 0.000000000000, -0.000000000000, -0.000000000000, -0.000000000000, 0.000000000000, 0.000000000000, -0.000000000000, 0.000000000000, 0.000000000000, -0.000000000000, -0.000000000000, -0.000000000000, 0.000000000000, -0.000000000000, -0.000000000000, -0.000000000000, 0.000000000000, -0.000000000000, -0.000000000000, -0.000000000000, -0.000000000000, 0.000000000000, -0.000000000000, -0.000000000000, 0.000000000000, 0.000000000000, 0.000000000000, -0.000000000000, -0.000000000000, 0.000000000000, 0.000000000000, -0.000000000000, 0.000000000000, 0.000000000000, -0.000000000000, -0.000000000000, 0.000000000000, -0.000000000000, -0.000000000000, -0.000000000000, -0.000000000000, 0.000000000000, 0.000000000000, -0.000000000000, -0.000000000000, -0.000000000000, 0.000000000000, 0.000000000000, 0.000000000000, -0.000000000000, 0.000000000000, -0.000000000000, 0.000000000000, -0.000000000000, -0.000000000000, -0.000000000000, 0.000000000000, 0.000000000000, -0.000000000000, 0.000000000000, -0.000000000000, 0.000000000000, 0.000000000000, 0.000000000000, -0.000000000000, 0.000000000000, -0.000000000000, 0.000000000000, -0.000000000000, -0.000000000000, -0.000000000000, -0.000000000000, 0.000000000000, 0.000000000000, -0.000000000000, 0.000000000000, -0.000000000000, -0.000000000000, -0.000000000000, 0.000000000000, -0.000000000000, 0.000000000000, 0.000000000000, 0.000000000000, -0.000000000000, -0.000000000000, -0.000000000000, -0.000000000000, 0.000000000000, 0.000000000000, 0.000000000000, -0.000000000000, -0.000000000000, -0.000000000000, 0.000000000000, 0.000000000000, 0.000000000000, 0.000000000000, -0.000000000000, -0.000000000000, -0.000000000000, 0.000000000000, -0.000000000000, -0.000000000000, 0.000000000000, -0.000000000000, 0.000000000000, 0.000000000000, -0.000000000000, -0.000000000000, 0.000000000000, 0.000000000000, -0.000000000000, 0.000000000000, 0.000000000000, -0.000000000000, 0.000000000000, 0.000000000000, -0.000000000000, 0.000000000000, 0.000000000000, 0.000000000000, 0.000000000000, 0.000000000000, -0.000000000000, 0.000000000000, -0.000000000000, 0.000000000000, -0.000000000000, 0.000000000000, 0.000000000000, 0.000000000000, -0.000000000000, -0.000000000000, 0.000000000000, 0.000000000000, 0.000000000000, -0.000000000000, -0.000000000000, 0.000000000000, -0.000000000000, -0.000000000000, 0.000000000000, -0.000000000000, 0.000000000000, 0.000000000000, 0.000000000000, -0.000000000000, -0.000000000000, 0.000000000000, -0.000000000000, 0.000000000000, -0.000000000000, 0.000000000000, 0.000000000000, 0.000000000000, 0.000000000000, -0.000000000000, 0.000000000000, -0.000000000000, 0.000000000000, -0.000000000000, -0.000000000000, 0.000000000000, -0.000000000000, -0.000000000000, 0.000000000000, 0.000000000000, 0.000000000000, -0.000000000000, 0.000000000000, 0.000000000000, -0.000000000000, -0.000000000000, 0.000000000000, -0.000000000000, -0.000000000000, 0.000000000000, -0.000000000000, -0.000000000000, -0.000000000000, -0.000000000000, 0.000000000000, -0.000000000000, 0.000000000000, 0.000000000000, -0.000000000000, -0.000019780202, 0.000000152271, 0.000000000000, 0.000000002916, -0.000000000000, 0.000000000000, 0.000000002207, 0.000000035253, 0.000000000000, -0.000000000013, 0.000000000000, -0.000000000000, -0.000057739901, 0.000000000000, -0.000000000000, 0.000000000416, -0.000050328712, -0.000000000000, 0.000000000000, 0.000000000472, 0.000001088530, 0.000000000000, 0.000000000000, -0.000000000000, -0.000000000000, 0.000000000000, -0.000000000000, -0.000048440772, 0.000000000000, 0.000000000000, 0.000000000000, -0.000000000000, 0.000000000000, 0.000000000000, -0.000000000000, -0.000000000000, -0.000000000000, -0.000000000000, 0.000000000000, 0.000000000000, -0.000018660248, 0.000000000000, 0.000000000000, 0.000000000000, 0.000000000091, -0.000000000013, -0.000000000000, -0.000000000000, 0.000001854446, -0.000000000000, 0.000000000000, -0.000009542213, 0.000000000029, -0.000000000000, -0.000000000000, 0.000000000000, -0.000000000000, 0.000000000000, -0.000000000000, -0.000000000000, 0.000000000506, -0.000000003571, 0.000000000000, 0.000000000000, -0.000000000000, -0.000049009941, 0.000000000000, -0.000000000000, 0.000269588229, -0.000000000000, 0.000000000000, -0.000000000000, 0.000000000000, 0.000000000000, 0.000000000000, -0.000000000000, 0.000000000000, 0.000000000000, -0.000000000000, 0.000000000000, 0.000000000004, 0.000000000072, -0.000000000000, -0.000000000000, -0.000002212789, 0.000000001786, 0.000000000000, -0.000078398079, -0.000000000000, -0.000000000000, 0.000000000000, -0.000000000000, 0.000000000000, 0.000000000000, -0.000000000000, -0.000000000000, 0.000000000000, 0.000000000000, 0.000000000000, 0.000000000000, 0.000000000126, 0.000000000000, 0.000000000000, 0.000000055093, 0.000000000000, 0.000000000000, -0.000000000000, 0.000007609879, -0.000000000000, 0.000000000009, 0.000000017563, 0.000000000000, -0.000000000075, -0.000000000000, 0.000000000000, -0.000000000000, -0.000000000523, 0.000000000000, 0.000000000000, 0.000000000000, -0.000000000000, -0.000000000000, 0.000116627285, -0.000033254488, 0.000000000009, 0.000000000000, -0.000000000008, 0.000027471093, -0.000000000000, 0.000000017897, 0.000000000000, -0.000236650711, 0.000034821442, 0.000000000000, 0.000000000000, -0.000000000000, 0.000000000000, 0.000000000068, 0.000000000002, -0.000000000000, -0.000000000000, 0.000000845090, 0.000000000000, -0.000000000000, -0.000000000000, -0.000000000000, 0.000000000000, 0.000000000000, 0.000000002532, -0.000000000000, -0.056034907699, -0.046071350574, -0.000000000000, -0.052809156477, -0.000000000000, -0.000000000000, 0.126266017556, -0.069392524660, 0.000000000000, 0.045439232141, 0.000000000000, -0.000000000000, -0.080389298499, -0.000000000000, 0.000000000000, -0.011330785230, -0.040932778269, 0.000000000000, -0.000000000000, 0.189550563693, -0.014942969196, 0.000000000000, -0.000000000000, -0.000000000000, 0.096116960049, 0.000000000000, 0.000000000000, -0.085281617939, -0.000000000000, 0.000000000000, 0.086012095213, 0.000000000000, -0.000000000000, 0.025310605764, -0.000091657610, -0.000000000000, -0.000000000000, -0.000000000000, -0.000000000000, -0.000000000000, -0.048511203378, 0.142512246966, -0.000000000000, -0.016756175086, 0.131664887071, 0.036518804729, -0.000000000000, 0.000000000000, -0.055416829884, -0.000000000000, -0.000000000000, -0.018394565210, 0.088278673589, -0.000000000000, -0.000000000000, -0.000000000000, 0.000000000000, 0.000000000000, -0.000000000000, -0.000000000000, 0.043076768517, -0.045565303415, -0.000000000000, -0.000000000000, 0.000066356595, -0.065896488726, 0.000013058471, -0.000000000000, -0.071687586606, 0.000000000000, 0.102264516056, -0.000000000712, 0.000000000000, 0.000000000000, 0.004835926462, -0.000000000000, -0.000000000000, 0.000000000012, -0.000000000197, -0.000000000000, -0.006908040959, -0.004836969543, -0.006365907844, 0.000000000000, -0.097225882113, 0.101364217699, -0.008643096313, -0.102082282305, -0.000000000000, -0.000000000000, 0.000000000000, -0.000000000000, 0.067646108568, -0.000000000000, 0.000000000000, -0.000000000000, 0.000000000000, 0.000000000000, -0.000000000000, -0.000001720026, -0.027237007394, -0.000000000000, -0.000000000000, -0.053394433111, -0.000000000000, -0.000000000000, -0.000000000000, -0.073823757470, 0.000000000000, -0.009944316000, -0.033895116299, 0.000000000000, 0.084034487605, -0.000000000000, 0.000000000000, 0.000000000000, -0.054561942816, 0.000000000000, -0.000000000000, 0.133266583085, -0.000000000000, 0.000000000000, 0.001728497096, -0.074916720390, -0.009382928722, 0.000000000000, 0.158482104540, -0.053613629192, 0.000000000447, 0.081346057355, 0.000000000000, -0.108229540288, -0.053277190775, -0.000000000000, -0.000000000000, -0.000000000000, -0.000000000000, 0.091009765863, -0.023497818038, 0.000000000000, 0.048726517707, -0.059179559350, 0.000000000000, 0.000000000000, 0.000000000000, -0.000000000000, -0.019978089258, -0.000465659279, -0.027155280113, 0.000000000000, -0.000000000000, -0.000000000000, 0.000000000000, -0.000000000000, 0.000000000000, -0.000000000000, 0.000000000000, 0.000000000000, -0.000000000000, 0.000000000000, -0.000000000000, -0.000000000000, -0.000000000000, -0.000000000000, 0.000000000000, -0.000000000000, 0.000000000000, 0.000000000000, 0.000000000000, 0.000000000000, -0.000000000000, -0.000000000000, 0.000000000000, 0.000000000000, 0.000000000000, -0.000000000000, -0.000000000000, -0.000000000000, 0.000000000000, -0.000000000000, 0.000000000000, 0.000000000000, -0.000000000000, 0.000000000000, -0.000000000000, -0.000000000000, -0.000000000000, 0.000000000000, -0.000000000000, -0.000000000000, -0.000000000000, 0.000000000000, -0.000000000000, -0.000000000000, 0.000000000000, 0.000000000000, -0.000000000000, -0.000000000000, -0.000000000000, -0.000000000000, 0.000000000000, 0.000000000000, -0.000000000000, -0.000000000000, -0.000000000000, 0.000000000000, -0.000000000000, -0.000000000000, -0.000000000000, 0.000000000000, 0.000000000000, 0.000000000000, -0.000000000000, 0.000000000000, -0.000000000000, -0.000000000000, 0.000000000000, 0.000000000000, 0.000000000000, -0.000000000000, 0.000000000000, 0.000000000000, 0.000000000000, 0.000000000000, -0.000000000000, -0.000000000000, 0.000000000000, -0.000000000000, -0.000000000000, 0.000000000000, 0.000000000000, -0.000000000000, 0.000000000000, -0.000000000000, -0.000000000000, 0.000000000000, -0.000000000000, 0.000000000000, -0.000000000000, 0.000000000000, 0.000000000000, 0.000000000000, 0.000000000000, 0.000000000000, -0.000000000000, 0.000000000000, -0.000000000000, 0.000000000000, -0.000000000000, -0.000000000000, 0.000000000000, -0.000000000000, 0.000000000000, -0.000000000000, -0.000000000000, 0.000000000000, 0.000000000000, -0.000000000000, 0.000000000000, 0.000000000000, 0.000000000000, 0.000000000000, 0.000000000000, -0.000000000000, 0.000000000000, 0.000000000000, 0.000000000000, -0.000000000000, 0.000000000000, 0.000000000000, 0.000000000000, 0.000000000000, 0.000000000000, 0.000000000000, 0.000000000000, 0.000000000000, 0.000000000000, 0.000000000000, -0.000000000000, 0.000000000000, -0.000000000000, -0.000000000000, -0.000000000000, -0.000000000000, -0.000000000000, -0.000000000000, -0.000000000000, 0.000000000000, 0.000000000000, 0.000000000000, -0.000000000000, -0.000000000000, -0.000000000000, 0.000000000000, 0.000000000000, -0.000000000000, -0.000000000000, -0.000000000000, -0.000000000000, 0.000000000000, -0.030735922977, -0.023813707754, 0.000000000000, 0.010173555464, 0.000000000000, -0.000000000000, 0.037472505122, -0.012230780907, 0.000000000000, -0.051204338670, 0.000000000000, 0.000000000000, -0.011641286314, 0.000000000000, -0.000000000000, 0.131817728281, -0.026518687606, 0.000000000000, 0.000000000000, 0.125825926661, -0.009142358787, -0.000000000000, -0.000000000000, 0.000000000000, -0.051687687635, -0.000000000000, -0.000000000000, -0.027440289035, -0.000000000000, 0.000000000000, 0.098818726838, -0.000000000000, -0.000000000000, 0.029456708580, -0.000000000275, -0.000000000000, -0.000000000000, -0.000000000000, -0.000000000000, 0.000000000000, -0.044137354940, 0.133101895452, 0.000000000000, 0.117031566799, 0.206264749169, -0.031060872599, 0.000000000000, 0.000000000000, 0.006721655838, -0.000000000000, 0.000000000000, 0.228046506643, 0.088941588998, -0.000000000000, -0.000000000000, -0.000000000000, -0.000000000000, 0.000000000000, -0.000000000000, 0.000000000000, 0.161957338452, -0.019877310842, 0.000000000000, 0.000000000000, 0.000519262103, -0.016341572627, -0.000000000000, -0.000000000000, -0.000498542096, 0.000000000000, 0.100508078933, -0.000000001511, 0.000000000000, 0.000000000000, 0.001496380894, -0.000000000000, -0.000000000000, -0.000000000000, -0.000000000000, -0.000000000000, 0.163128107786, 0.000056380832, 0.035307176411, -0.000000000000, -0.028935130686, 0.151673004031, 0.000345099019, -0.019791055471, 0.000000000000, -0.000000000000, 0.000000000000, 0.000000000000, -0.004536425229, -0.000000000000, -0.000000000000, -0.000000000000, 0.000000000000, 0.000000000000, -0.000000000000, -0.001354129403, -0.000421779638, 0.000000000000, -0.000000000000, 0.005735503975, -0.000000000000, 0.000000000000, -0.000000000000, -0.004333545454, 0.000000000000, 0.139020979404, -0.013011429459, -0.000000000000, 0.122274331748, -0.000000000000, -0.000000000000, 0.000000000000, 0.207508832216, -0.000000000000, -0.000000000000, 0.097973577678, -0.000000000000, 0.000000000000, -0.010886792094, -0.000770590093, -0.000003921376, -0.000000000000, 0.159088805318, -0.027641952038, -0.000000000000, 0.202574297786, -0.000000000000, 0.006565880496, 0.011378541589, -0.000000000000, 0.000000000000, 0.000000000000, 0.000000000000, 0.162397474051, -0.004995738622, 0.000000000000, -0.018879564479, 0.012567403726, -0.000000000000, -0.000000000000, 0.000000000001, 0.000000000000, -0.006673989818, -0.000000070969, -0.011655461974, 0.000000000000, 0.000011962804, -0.000000000000, -0.000000000000, -0.000000000000, -0.000000000000, -0.000000000000, 0.001552075963, 0.000000000000, 0.000000000000, -0.000026935151, -0.000000000000, -0.000000000000, 0.000000009329, 0.000000000000, -0.000000000000, -0.000038838767, 0.000000000000, 0.000000000000, -0.000000000000, 0.000184222547, 0.000000210544, 0.000000000000, 0.000000000000, 0.000000000000, 0.000242946800, -0.000000000000, 0.000000000000, 0.000000000009, 0.000000000000, 0.000000000000, -0.000000508473, -0.000000000000, -0.000000000000, -0.000022111668, 0.000000000000, -0.000000000000, -0.000000000000, -0.000000000000, 0.000000000000, 0.000000000000, -0.000010901438, 0.000148694875, 0.000000000000, 0.000000001404, 0.000180511750, -0.000123917911, -0.000000000000, -0.000000000000, 0.000000000004, 0.000000000000, 0.000000000000, 0.000018862287, 0.000010514038, -0.000000000000, -0.000000000000, 0.000000000000, 0.000000000000, 0.000000000000, 0.000000000000, -0.000000000000, 0.000000763962, 0.000000000000, -0.000000000000, 0.000000000000, 0.000000000000, 0.000000000091, -0.000000000000, -0.000000000000, 0.000000019515, -0.000000000000, -0.000012121018, -0.000000000000, -0.000000000000, 0.000000000000, -0.000000000034, -0.000000000000, 0.000000000000, -0.000000000000, 0.000000000000, 0.000000000000, 0.000001746757, 0.000000000000, 0.000000000021, 0.000000000000, 0.000000000000, -0.000026698390, 0.000000000000, 0.000000002272, 0.000000000000, -0.000000000000, 0.000000000000, 0.000000000000, 0.000687896507, -0.000000000000, -0.000000000000, -0.000000000000, 0.000000000000, -0.000000000000, -0.000000000000, -0.000000000000, 0.000000000000, -0.000000000000, -0.000000000000, -0.000000000000, 0.000000000000, -0.000000000000, -0.000000000000, -0.000000000397, -0.000000000000, 0.000000012240, -0.000000000000, 0.000000000000, 0.000012923382, 0.000000000000, 0.000000000000, -0.000000000000, -0.000004828091, -0.000000000000, -0.000000000000, -0.000015149448, -0.000000000000, 0.000000000000, 0.000039688734, 0.000000000148, 0.000000000000, -0.000000000000, 0.000151461223, 0.000000949235, 0.000000000000, 0.000155964473, 0.000000000000, 0.000000031831, 0.000012816517, -0.000000000000, -0.000000000000, 0.000000000000, -0.000000000000, 0.000051716623, 0.000000000000, 0.000000000000, -0.000008548174, 0.000000000000, 0.000000000000, 0.000000000000, -0.000000000000, 0.000000000000, 0.000000000000, 0.000000000000, 0.000000000000, -0.000000000000, 0.000000000000, 0.000000000000, -0.000000000000, -0.000000000000, -0.000000000000, 0.000000000000, -0.000000000000, -0.000000000000, 0.000000000000, -0.000000000000, 0.000000000000, -0.000000000000, -0.000000000000, -0.000000000000, -0.000000000000, -0.000000000000, 0.000000000000, 0.000000000000, -0.000000000000, 0.000000000000, -0.000000000000, -0.000000000000, 0.000000000000, -0.000000000000, 0.000000000000, -0.000000000000, -0.000000000000, 0.000000000000, 0.000000000000, -0.000000000000, 0.000000000000, 0.000000000000, 0.000000000000, 0.000000000000, -0.000000000000, 0.000000000000, 0.000000000000, -0.000000000000, 0.000000000000, -0.000000000000, 0.000000000000, 0.000000000000, -0.000000000000, 0.000000000000, 0.000000000000, -0.000000000000, 0.000000000000, 0.000000000000, -0.000000000000, -0.000000000000, 0.000000000000, -0.000000000000, -0.000000000000, -0.000000000000, 0.000000000000, -0.000000000000, -0.000000000000, -0.000000000000, -0.000000000000, -0.000000000000, 0.000000000000, 0.000000000000, -0.000000000000, -0.000000000000, -0.000000000000, -0.000000000000, -0.000000000000, 0.000000000000, 0.000000000000, -0.000000000000, 0.000000000000, 0.000000000000, -0.000000000000, -0.000000000000, 0.000000000000, -0.000000000000, 0.000000000000, 0.000000000000, 0.000000000000, 0.000000000000, -0.000000000000, 0.000000000000, -0.000000000000, 0.000000000000, 0.000000000000, 0.000000000000, -0.000000000000, 0.000000000000, 0.000000000000, 0.000000000000, 0.000000000000, -0.000000000000, 0.000000000000, 0.000000000000, 0.000000000000, -0.000000000000, -0.000000000000, -0.000000000000, 0.000000000000, -0.000000000000, 0.000000000000, 0.000000000000, 0.000000000000, -0.000000000000, 0.000000000000, 0.000000000000, -0.000000000000, 0.000000000000, -0.000000000000, -0.000000000000, -0.000000000000, 0.000000000000, -0.000000000000, -0.000000000000, -0.000000000000, 0.000000000000, -0.000000000000, -0.000000000000, -0.000000000000, -0.000000000000, -0.000000000000, 0.000000000000, -0.000000000000, 0.000000000000, -0.000000000000, -0.000000000000, -0.000000000000, -0.000000000000, 0.000000000000, -0.000000000000, -0.000000000000, 0.000000000000, -0.000000000000, 0.000000000000, 0.000000000000, 0.000000000000, 0.000000000000, 0.000000000000, -0.000000000000, -0.000000000000, 0.000000000000, 0.000000000000, 0.000000000000, -0.000000000000, -0.000000000000, -0.000000000000, -0.000000000000, -0.000000000000, 0.000000000000, -0.000000000000, 0.000000000000, 0.000000000000, 0.000000000000, 0.000000000000, -0.000000000000, -0.000000000000, -0.000000000000, 0.000000000000, -0.000000000000, -0.000000000000, -0.000000000000, -0.000000000000, 0.000000000000, -0.000000000000, -0.000000000000, -0.000000000000, 0.000000000000, 0.000000000000, -0.000000000000, -0.000000000000, 0.000000000000, 0.000000000000, 0.000000000000, 0.000000000000, 0.000000000000, -0.000000000000, -0.000000000000, 0.000000000000, -0.000000000000, 0.000000000000, 0.000000000000, -0.000000000000, -0.000000000000, 0.000000000000, 0.000000000000, 0.000000000000, -0.000000000000, -0.000000000000, 0.000000000000, -0.000000000000, 0.000000000000, -0.000000000000, 0.000000000000, -0.000000000000, -0.000000000000, -0.000000000000, -0.000000000000, 0.000000000000, 0.000000000000, -0.000000000000, 0.000000000000, 0.000000000000, 0.000000000000, -0.000000000000, -0.000000000000, -0.000000000000, -0.000000000000, -0.000000000000, -0.000000000000, 0.000000000000, -0.000000000000, -0.000000000000, -0.000000000000, 0.000000000000, -0.000000000000, 0.000000000000, 0.000000000000, -0.000000000000, 0.000000000000, 0.000000000000, -0.000000000000, -0.000000000000, -0.000000000000, 0.000000000000, -0.000000000000, -0.000000000000, 0.000000000000, 0.000000000000, 0.000000000000, -0.000000000000, -0.000000000000, 0.000000000000, 0.000000000000, -0.000000000000, 0.000000000000, 0.000000000000, 0.000000000000, 0.000000000000, -0.000000000000, -0.000000000000, 0.000000000000, 0.000000000000, 0.000000000000, -0.000000000000, -0.000000000000, -0.000000000000, 0.000000000000, 0.000000000000, -0.000000000000, 0.000000000000, 0.000000000000, -0.000000000000, 0.000000000000, 0.000000000000, 0.000000000000, -0.000000000000, -0.000000000000, 0.000000000000, -0.000000000000, -0.000000000000, 0.000000000000, 0.000000000000, -0.000000000000, -0.000000000000, -0.000000000000, -0.000000000000, 0.000000000000, 0.000000000000, 0.000000000000, -0.000000000000, 0.000000000000, -0.000000000000, 0.000000000001, 0.000000000007, 0.000000000000, 0.000000000000, -0.000000000000, 0.000000000000, 0.000000000000, -0.000000000000, 0.000000000000, 0.000000000001, 0.000000000000, -0.000000000000, 0.000000000000, -0.000000000000, -0.000000000000, -0.000000000000, 0.000000000000, 0.000000000000, 0.000000000000, 0.000000000000, -0.000000000000, -0.000000000000, -0.000000000000, -0.000000000000, 0.000000000000, 0.000000000000, 0.000000000000, -0.000000000000, -0.000000000000, 0.000000000000, -0.000000000000, 0.000000000000, 0.000000000000, 0.000000000000, -0.000000000000, 0.000000000000, -0.000000000000, -0.000000000000, -0.000000000000, -0.000000000000, 0.000000000000, -0.000000000000, -0.000000000000, -0.000000000000, 0.000000000000, -0.000000000000, -0.000000000000, -0.000000000000, 0.000000000000, -0.000000000000, 0.000000000000, -0.000000000000, -0.000000000000, 0.000000000000, 0.000000000000, -0.000000000000, -0.000000000000, -0.000000000000, -0.000000000000, 0.000000000000, -0.000000000000, 0.000000000000, -0.000000000000, -0.000000000000, 0.000000000000, -0.000000000000, -0.000000000000, 0.000000000000, -0.000000000000, 0.000000000000, 0.000000000000, 0.000000000000, 0.000000000000, 0.000000000000, 0.000000000000, -0.000000000000, -0.000000000000, -0.000000000000, -0.000000000000, -0.000000000000, -0.000000000000, 0.000000000000, 0.000000000000, 0.000000000000, 0.000000000000, -0.000000000000, 0.000000000000, 0.000000000000, 0.000000000000, -0.000000000000, 0.000000000000, 0.000000000000, -0.000000000000, -0.000000000000, -0.000000000000, 0.000000000000, 0.000000000000, -0.000000000000, -0.000000000000, -0.000000000000, 0.000000000000, 0.000000000000, 0.000000000000, 0.000000000000, 0.000000000000, 0.000000000000, -0.000000000000, -0.000000000000, -0.000000000000, 0.000000000000, -0.000000000000, 0.000000000000, 0.000000000000, -0.000000000000, 0.000000000000, -0.000000000000, -0.000000000000, -0.000000000000, -0.000000000000, -0.000000000000, 0.000000000000, -0.000000000000, 0.000000000000, -0.000000000000, 0.000000000000, 0.000000000000, -0.000000000000, -0.000000000000, 0.000000000000, -0.000000000000, -0.000000000000, -0.000000000000, -0.000000000000, -0.000000000000, -0.000000000000, -0.000000000000, 0.000000000000, 0.000000000000, 0.000000000000, 0.000000000000, -0.000000000000, -0.000000000000, 0.000000000000, -0.000000000000, 0.000000000000, -0.000000000000, 0.000000000000, 0.000000000000, -0.000000000000, 0.000000000000, 0.000000000000, -0.000000000000, -0.000000000000, -0.000000000000, 0.000000000000, -0.000000000000, 0.000000000000, 0.000000000000, 0.000000000000, -0.000000000000, 0.000000000000, 0.000000000000, 0.000000000000, -0.000000000000, 0.000000000000, 0.000000000000, -0.000000000000, 0.000000000000, 0.000000000000, 0.000000000000, 0.000000000000, 0.000000000000, 0.000000000000, -0.000000000000, 0.000000000000, 0.000000000000, -0.000000000000, -0.000000000000, -0.000000000000, -0.000000000000, 0.000000000000, -0.000000000000, -0.000000000000, 0.000000000000, -0.000000000000, 0.000000000000, -0.000000000000, -0.000000000000, 0.000000000000, -0.000000000000, -0.000000000000, -0.000000000000, 0.000000000000, 0.000000000000, 0.000000000000, -0.000000000000, -0.000000000000, -0.000000000000, 0.000000000000, 0.000000000000, 0.000000000000, -0.000000000000, -0.000000000000, -0.000000000000, 0.000000000000, -0.000000000000, -0.000000000000, 0.000000000000, 0.000000000000, -0.000000000000, 0.000000000000, -0.000000000000, 0.000000000000, -0.000000000000, -0.000000000000, -0.000000000000, -0.000000000000, 0.000000000000, 0.000000000000, 0.000000000000, 0.000000000000, 0.000000000000, 0.000000000000, -0.000000000000, 0.000000000000, 0.000000000000, -0.000000000000, -0.000000000000, 0.000000000000, 0.000000000000, -0.000000000000, -0.000000000000, -0.000000000000, 0.000000000000, -0.000000000000, 0.000000000000, 0.000000000000, -0.000000000000, -0.000000000000, 0.000000000000, 0.000000000000, 0.000000000000, -0.000000000000, -0.000000000000, -0.000000000000, 0.000000000000, -0.000000000000, -0.000000000000, 0.000000000000, -0.000000000000, 0.000000000000, -0.000000000000, 0.000000000000, -0.000000000000, -0.000000000000, -0.000000000000, 0.000000000000, -0.000000000000, 0.000000000000, 0.000000000000, 0.000000000000, -0.000000000000, 0.000000000000, 0.000000000000, 0.000000000000, 0.000000000000, -0.000000000000, 0.000000000000, -0.000000000000, 0.000000000000, -0.000000000000, -0.000000000000, -0.000000000000, 0.000000000000, -0.000000000000, -0.000000000000, -0.000000000000, 0.000000000000, 0.000000000000, -0.000000000000, 0.000000000000, -0.000000000000, 0.000000000000, -0.000000000000, 0.000000000000, -0.000000000000, -0.000000000000, -0.000000000000, -0.000000000000, -0.000000000000, 0.000000000000, -0.000000000000, -0.000000000000, -0.000000000000, 0.000000000000, -0.000000000000, -0.000000000000, -0.000000000000, 0.000000000000, 0.000000000000, 0.000000000000, -0.000000000000, -0.000000000000, 0.000000000000, 0.000000000000, 0.000000000000, 0.000000000000, -0.000000000000, 0.000000000000, -0.000000000000, 0.000000000000, -0.000000000000, 0.000000000000, -0.000000000000, -0.000000000000, -0.000000000000, 0.000000000000, 0.000000000000, 0.000000000000, -0.000000000000, -0.000000000000, 0.000000000000, 0.000000000000, -0.000000000000, 0.000000000000, -0.000000000000, 0.000000000000, 0.000000000000, -0.000000000110, -0.000000000000, -0.000000000000, 0.000000000000, 0.000000000000, -0.000000000000, -0.000000000007, 0.000000000000, -0.000000000000, -0.000000000000, 0.000000000000, -0.000000000000, 0.000000000000, 0.000000000000, -0.000000000000, 0.000088219909, -0.000000000000, 0.000000000000, -0.000000000000, 0.000002438550, 0.000000000000, 0.000000000000, -0.000000000000, -0.000000000000, -0.000000000000, -0.000000000000, 0.000000000000, -0.000000000000, -0.000000000000, -0.000000000000, 0.000000000130, -0.000000000000, 0.000000000000, -0.000000000000, 0.000000000000, -0.000000000000, 0.000000000000, -0.000000000000, 0.000000000000, -0.000000000000, -0.000000000000, 0.000001328723, -0.000000000000, 0.000000019135, 0.000027014643, 0.000000000000, 0.000000000000, 0.000000000000, -0.000000000000, -0.000000000000, 0.000000000000, 0.000331361749, 0.000000383873, 0.000000000000, -0.000000000000, -0.000000000000, 0.000000000000, 0.000000000000, 0.000000000000, -0.000000000000, 0.000000236319, -0.000000000000, -0.000000000000, 0.000000000000, 0.000000000000, -0.000000000000, 0.000000000000, -0.000000000000, 0.000000000000, 0.000000000000, 0.000000018041, -0.000000000000, 0.000000000000, 0.000000000000, 0.000000000000, -0.000000000000, -0.000000000000, 0.000000000000, -0.000000000000, 0.000000000000, 0.000002730046, 0.000000000000, 0.000000000267, 0.000000000000, -0.000000000000, 0.000005241332, 0.000000000000, 0.000000000000, -0.000000000000, -0.000000000000, 0.000000000000, 0.000000000000, -0.000000000001, -0.000000000000, 0.000000000000, -0.000000000000, -0.000000000000, -0.000000000000, -0.000000000000, -0.000000000000, 0.000000000000, -0.000000000000, -0.000000000000, -0.000000000000, -0.000000000000, 0.000000000000, -0.000000000000, 0.000000000000, 0.000000000000, 0.000005253483, -0.000000000000, -0.000000000000, 0.000009493065, -0.000000000000, -0.000000000000, -0.000000000000, 0.000016710752, -0.000000000000, 0.000000000000, 0.000000715934, -0.000000000000, 0.000000000000, 0.000000000001, 0.000000000000, 0.000000000000, 0.000000000000, 0.000003743515, 0.000000000000, 0.000000000000, 0.000004254749, 0.000000000000, -0.000000000000, 0.000000000014, -0.000000000000, -0.000000000000, -0.000000000000, -0.000000000000, 0.000001736962, -0.000000000000, 0.000000000000, -0.000000000000, 0.000000000000, 0.000000000000, 0.000000000000, 0.000000000000, 0.000000000000, -0.000000000000, -0.000000000000, 0.000000000000, -0.000000000000, -0.000000000000, 0.000000000000, -0.000000000000, 0.000000000000, -0.000000000000, -0.000000000000, -0.000000000000, 0.000000000000, -0.000000000000, -0.000000000000, -0.000000000000, -0.000000000000, -0.000000000000, -0.000000000000, -0.000000000000, -0.000000000000, 0.000000000000, -0.000000000000, -0.000000000000, 0.000000000000, -0.000000000000, -0.000000000000, -0.000000000000, -0.000000000000, 0.000000000000, -0.000000000000, 0.000000000000, 0.000000000000, 0.000000000000, -0.000000000000, -0.000000000000, 0.000000000000, -0.000000000000, 0.000000000000, -0.000000000000, 0.000000000000, -0.000000000000, 0.000000000000, 0.000000000000, -0.000000000000, 0.000000000000, -0.000000000000, 0.000000000000, -0.000000000000, 0.000000000000, -0.000000000000, 0.000000000000, 0.000000000000, 0.000000000000, 0.000000000000, -0.000000000000, -0.000000000000, -0.000000000000, -0.000000000000, -0.000000000000, -0.000000000000, -0.000000000000, -0.000000000000, 0.000000000000, 0.000000000000, -0.000000000000, -0.000000000000, 0.000000000000, 0.000000000000, -0.000000000000, -0.000000000000, -0.000000000000, -0.000000000000, -0.000000000000, -0.000000000000, 0.000000000000, 0.000000000000, -0.000000000000, -0.000000000000, 0.000000000000, -0.000000000000, 0.000000000000, -0.000000000000, -0.000000000000, -0.000000000000, -0.000000000000, -0.000000000000, -0.000000000000, -0.000000000000, 0.000000000000, -0.000000000000, 0.000000000000, 0.000000000000, 0.000000000000, -0.000000000000, -0.000000000000, -0.000000000000, -0.000000000000, 0.000000000000, 0.000000000000, -0.000000000000, 0.000000000000, -0.000000000000, 0.000000000000, 0.000000000000, 0.000000000000, 0.000000000000, -0.000000000000, -0.000000000000, -0.000000000000, 0.000000000000, 0.000000000000, -0.000000000000, -0.000000000000, -0.000000000000, -0.000000000000, 0.000000000000, -0.000000000000, -0.000000000000, -0.000000000000, -0.000000000000, -0.000000000000, -0.000000000000, 0.000000000000, 0.000000000000, -0.000000000000, -0.000000000000, 0.000000000000, -0.000000000000, 0.000000000000, -0.000000000000, 0.000000000000, 0.000000000000, 0.000000000000, 0.000000000000, -0.000000000000, -0.000000000000, 0.000000000000, 0.000000000000, 0.000000000000, -0.000000000000, 0.000000000000, -0.000000000000, 0.000000000000, -0.000000000000, -0.000000000000, 0.000000000000, 0.000000000000, -0.000000000000, -0.000000000000, -0.000000000000, -0.000000000000, 0.000000000000, -0.000000000000, -0.000000000000, 0.000000000000, 0.000000000000, 0.000000000000, 0.000000000000, 0.000000000000, -0.000000000000, -0.000000000000, 0.000000000000, -0.000000000000, -0.000000000000, 0.000000000000, -0.000000000000, 0.000000000000, 0.000000000000, -0.000000000000, 0.000000000000, -0.000000000000, 0.000000000000, -0.000000000000, -0.000000000000, 0.000000000000, -0.000000000000, 0.000000000000, 0.000000000000, -0.000000000000, 0.000000000000, 0.000000000000, 0.000000000000, -0.000000000000, -0.000000000000, -0.000000000000, -0.000000000000, 0.000000000000, -0.000000000000, 0.000000000000, -0.000000000000, -0.000000000000, 0.000000000000, 0.000000000000, 0.000000000000, 0.000000000000, -0.000000000000, -0.000000000000, -0.000000000000, -0.000000000000, -0.000000000000, 0.000000000000, 0.000000000000, 0.000000000000, 0.000000000000, 0.000000000000, 0.000000000000, 0.000000000000, 0.000000000000, -0.000000000000, 0.000000000000, 0.000000000000, 0.000000000000, 0.000000000000, -0.000000000000, -0.000000000000, -0.000000000000, 0.000000000000, 0.000000000000, -0.000000000000, 0.000000000000, -0.000000000000, -0.000000000000, 0.000000000000, -0.000000000000, -0.000000000000, -0.000000000000, -0.000000000000, 0.000000000000, -0.000000000000, -0.000000000000, -0.000000000000, 0.000000000000, 0.000000000000, -0.000000000000, -0.000000000000, 0.000000000000, -0.000000000000, 0.000000000000, 0.000000000000, -0.000000000000, -0.000000000000, -0.000000000000, -0.000000000000, 0.000000000000, -0.000000000000, -0.000000000000, -0.000000000000, 0.000000000000, 0.000000000000, -0.000000000000, 0.000000000000, -0.000000000000, -0.000000000000, -0.000000000000, -0.000000000000, 0.000000000000, -0.000000000000, -0.000000000000, 0.000000000000, 0.000000000000, -0.000000000000, 0.000000000000, 0.000000000000, 0.000000000000, 0.000000000000, -0.000000000000, 0.000000000000, -0.000000000000, -0.000000000000, 0.000000000000, 0.000000000000, 0.000000000000, -0.000000000000, -0.000000000000, 0.000000000000, -0.000000000000, -0.000000000000, 0.000000000000, -0.000000000000, 0.000000000000, -0.000000000000, 0.000000000000, 0.000000000000, -0.000000000000, -0.000000000000, -0.000000000000, 0.000000000000, -0.000000000000, 0.000000000000, 0.000000000000, 0.000000000000, 0.000000000000, 0.000000000000, 0.000000000000, 0.000000000000, -0.000000000000, -0.000000000000, 0.000000000000, -0.000000000000, 0.000000000000, 0.000000000000, -0.000000000000, 0.000000000000, -0.000000000000, 0.000041099313, 0.000000010140, -0.000000000000, 0.000000000289, 0.000000000000, -0.000000000000, 0.000000286638, 0.000000660034, 0.000000000000, 0.000000000000, 0.000000000000, -0.000000000000, 0.000012514781, 0.000000000000, -0.000000000000, 0.000000458618, 0.000000110384, 0.000000000000, -0.000000000000, 0.000000036097, 0.000000061722, 0.000000000000, -0.000000000000, 0.000000000000, 0.000000029551, -0.000000000000, 0.000000000000, 0.000000229327, -0.000000000000, -0.000000000000, 0.000000000000, 0.000000000000, 0.000000000000, -0.000000000000, 0.000000000000, 0.000000000000, -0.000000000000, 0.000000000000, -0.000000000000, -0.000000000000, 0.000028531949, -0.000000000112, -0.000000000000, 0.000000000000, -0.000000683473, 0.000000000000, -0.000000000000, 0.000000000000, 0.000000035789, 0.000000000000, 0.000000000000, -0.000010226579, 0.000000000655, 0.000000000000, -0.000000000000, -0.000000000000, -0.000000000000, -0.000000000000, 0.000000000000, 0.000000000000, 0.000000002203, 0.000000000937, -0.000000000000, 0.000000000000, -0.000000000000, 0.000001983446, -0.000000000000, 0.000000000000, 0.000017199935, 0.000000000000, 0.000000000404, 0.000000000000, 0.000000000000, -0.000000000000, -0.000000000000, 0.000000000000, -0.000000000000, 0.000000000000, 0.000000000000, -0.000000000000, 0.000000000568, 0.000000000000, -0.000000000000, -0.000000000000, 0.000000389777, 0.000000014554, 0.000000000000, 0.000026879501, 0.000000000000, 0.000000000000, 0.000000000000, 0.000000000000, 0.000000000000, -0.000000000000, -0.000000000000, 0.000000000000, -0.000000000000, 0.000000000000, -0.000000000000, -0.000000000000, 0.000000000037, -0.000000000000, -0.000000000000, 0.000000000129, -0.000000000000, -0.000000000000, -0.000000000000, 0.000003300894, -0.000000000000, 0.000000000005, 0.000000001575, -0.000000000000, 0.000000043007, 0.000000000000, -0.000000000000, -0.000000000000, 0.000000325325, -0.000000000000, -0.000000000000, 0.000000010577, 0.000000000000, 0.000000000000, 0.000014222082, 0.000001118906, 0.000000000001, 0.000000000000, 0.000000111312, 0.000006315549, 0.000000000000, 0.000000037402, -0.000000000000, 0.000076786673, 0.000015698353, -0.000000000000, -0.000000000000, -0.000000000000, -0.000000000000, 0.000000022574, 0.000000000000, 0.000000000000, -0.000000000000, 0.000000311518, 0.000000000000, -0.000000000000, 0.000000000000, -0.000000000000, 0.000000000000, 0.000000000000, 0.000000000013, -0.000000000000, 0.134417101741, 0.063709743321, -0.000000000000, 0.049072913826, -0.000000000000, 0.000000000000, -0.039557293057, 0.094961807132, -0.000000000000, -0.012678074650, -0.000000000000, -0.000000000000, 0.110851645470, -0.000000000000, -0.000000000000, -0.007079496980, 0.130264386535, -0.000000000000, -0.000000000000, -0.039131700993, 0.080972239375, 0.000000000000, 0.000000000000, -0.000000000000, -0.030330434442, -0.000000000000, -0.000000000000, 0.112582623959, 0.000000000000, 0.000000000000, 0.001950644539, -0.000000000000, -0.000000000000, -0.000289285934, -0.000304843910, -0.000000000000, 0.000000000000, -0.000000000000, 0.000000000000, -0.000000000000, 0.173424497247, -0.003206341527, 0.000000000000, -0.000704008911, -0.028636023402, -0.028914121911, -0.000000000000, -0.000000000000, 0.092465892434, 0.000000000000, -0.000000000000, -0.036503978074, -0.018057541922, -0.000000000000, -0.000000000000, -0.000000000000, -0.000000000000, -0.000000000000, -0.000000000000, 0.000000000000, -0.020775940269, 0.076169542968, 0.000000000000, 0.000000000000, -0.000000000000, 0.091497339308, 0.000228848978, -0.000000000000, 0.108895942569, 0.000000000000, -0.015033675358, 0.000000000000, -0.000000000000, 0.000000000000, -0.000000000000, -0.000000000000, -0.000000000000, 0.000000000000, 0.000000000000, 0.000000000000, -0.000767425285, 0.018495630473, -0.000058291480, 0.000000000000, 0.068218380213, -0.001745030750, 0.000460088049, 0.164557725191, 0.000000000000, 0.000000000000, 0.000000000000, -0.000000000000, -0.005858545192, -0.000000000000, -0.000000000000, 0.000000000000, -0.000000000000, -0.000000000000, 0.000000000000, -0.000001581912, 0.054630961269, -0.000000000000, -0.000000000000, 0.048277840018, -0.000000000000, -0.000000000000, -0.000000000000, 0.074988387525, -0.000000000000, -0.013295911252, 0.049025721848, -0.000000000000, 0.000367004046, -0.000000000000, -0.000000000000, 0.000000000000, -0.009024140425, 0.000000000000, -0.000000000000, -0.026667373255, -0.000000000000, -0.000000000000, 0.160758048296, 0.118549138308, 0.029357971624, 0.000000000000, -0.017413364723, 0.170785576105, -0.001004566904, -0.029974197969, 0.000000000000, 0.098972842097, 0.191967293620, 0.000000000000, -0.000000000000, -0.000000000000, 0.000000000000, -0.025511320680, 0.035369232297, 0.000000000000, 0.008902800269, 0.086530916393, -0.000000000000, 0.000000000000, 0.000000000000, -0.000000000000, -0.006264345720, -0.001493779360, 0.057128328830, 0.000000000000, 0.085955649614, 0.076468735933, 0.000000000000, 0.059906601906, -0.000000000000, -0.000000000000, -0.045497559011, -0.019071199000, 0.000000000000, -0.047730974853, -0.000000000000, -0.000000000000, 0.068080201745, -0.000000000000, -0.000000000000, -0.019000258297, 0.004376792815, -0.000000000000, -0.000000000000, -0.074206866324, 0.064056299627, -0.000000000000, -0.000000000000, -0.000000000000, -0.058317653835, -0.000000000000, -0.000000000000, 0.034679241478, -0.000000000000, -0.000000000000, -0.001818590332, -0.000000000000, -0.000000000000, -0.038424331695, -0.000611793890, -0.000000000000, -0.000000000000, -0.000000000000, 0.000000000000, -0.000000000000, 0.033266257495, -0.028859039769, -0.000000000000, -0.001319313771, -0.060976155102, -0.036413010210, 0.000000000000, 0.000000000000, 0.031581263989, 0.000000000000, 0.000000000000, -0.091642104089, -0.074724428356, -0.000000000000, 0.000000000000, -0.000000000000, -0.000000000000, -0.000000000000, -0.000000000000, -0.000000000000, -0.062328055501, -0.013577088714, -0.000000000241, -0.000000000000, 0.000000000000, 0.022454144433, 0.006526369601, -0.000000000000, 0.034078091383, 0.000000000000, -0.038588728756, -0.000000000000, -0.000000000000, 0.000000000000, -0.000004831940, -0.000000000000, -0.000000000000, -0.000000000000, -0.000000000000, 0.000000000003, 0.008337241597, 0.016017116606, -0.000688570319, -0.000000000000, 0.037921689451, -0.030618263409, -0.000313678931, 0.006983019412, 0.000000000000, 0.000000000000, -0.000000000000, -0.000000000000, -0.032164689153, -0.000000000000, -0.000000000000, -0.000000000000, 0.000000000000, -0.000000000000, -0.000000000000, -0.000241071335, -0.019900105894, -0.000000000000, -0.000000000000, 0.035317681730, -0.000000000000, -0.000000000000, -0.000000000000, 0.123503163457, -0.000000000000, 0.004717289936, 0.068213596940, 0.000000000000, -0.058400046080, -0.000000000054, 0.000000000000, 0.000000000000, -0.047329679132, -0.000000000000, -0.000000000000, -0.047676015645, -0.000000000000, -0.000000000000, 0.159920170903, 0.166427820921, -0.028704574332, -0.000000000000, -0.029012681916, 0.145796820521, 0.008898329921, -0.021393636242, -0.000000000000, 0.082537710667, 0.146102637053, 0.000000000000, -0.000000000000, 0.000000000000, -0.000000000000, -0.074354708195, -0.021846389398, -0.000000000000, -0.008461326361, 0.033461168408, -0.000000000000, 0.000000000000, 0.000000000000, 0.000000000000, -0.020609036088, 0.007932974957, 0.018878405914, -0.000000000000, -0.000721283955, -0.000282524532, 0.000000000000, -0.000120972567, -0.000000000000, -0.000000000000, -0.000009780520, -0.000844162598, -0.000000000000, 0.000000109603, -0.000000000000, -0.000000000000, -0.001083843876, 0.000000000000, -0.000000000000, -0.000000043343, -0.001437819679, -0.000000000000, 0.000000000000, 0.000016197306, -0.000497840811, 0.000000000000, -0.000000000000, 0.000000000000, 0.000006759951, -0.000000000000, 0.000000000000, -0.001928303624, 0.000000000000, -0.000000000000, 0.000000000001, -0.000000000000, -0.000000000000, 0.000000000002, -0.000000000000, 0.000000000000, 0.000000000000, 0.000000000000, 0.000000000000, -0.000000000000, -0.000196746056, 0.000000182670, -0.000000000000, 0.000000000000, 0.000054187203, 0.000001038282, -0.000000000000, 0.000000000000, -0.000850891229, -0.000000000000, -0.000000000000, 0.000322528882, 0.000000071831, -0.000000000000, 0.000000000000, -0.000000000000, -0.000000000000, -0.000000000000, 0.000000000000, -0.000000000000, 0.000000697273, -0.000058459329, -0.000000000000, -0.000000000000, 0.000000000000, -0.001372016501, -0.000000103700, -0.000000000000, -0.000557688880, -0.000000000000, 0.000000431596, -0.000000000000, -0.000000000000, -0.000000000000, 0.000000000000, -0.000000000000, 0.000000000000, -0.000000000000, -0.000000000000, -0.000000000000, -0.000000000000, -0.000071204107, -0.000000000000, -0.000000000000, -0.001020166557, 0.000000864086, -0.000005677872, -0.001670655212, 0.000000000000, 0.000000000000, 0.000000000000, -0.000000000000, 0.000003237280, 0.000000000000, -0.000000000000, -0.000000000000, 0.000000000000, -0.000000000000, -0.000000000000, 0.000000000000, -0.000011641033, 0.000000000000, 0.000000000000, -0.000111319743, 0.000000000000, -0.000000000000, 0.000000000000, -0.000402738020, -0.000000000000, -0.000000000000, -0.000131679335, -0.000000000000, 0.000008350441, 0.000000000000, 0.000000000000, -0.000000000000, 0.000000122371, 0.000000000000, 0.000000000000, 0.000006104839, 0.000000000000, -0.000000000000, 0.000246473122, -0.000372863491, -0.000000024152, 0.000000000000, 0.000034539280, -0.001062326017, -0.000000002241, 0.000008586542, -0.000000000000, 0.000412295194, 0.000324324705, -0.000000000000, 0.000000000000, -0.000000000000, 0.000000000000, 0.000001337065, -0.000012493592, 0.000000000000, 0.000000000000, -0.000476314395, 0.000000000000, -0.000000000000, 0.000000000000, -0.000000000000, -0.000000237688, -0.000000911943, -0.000082496626, -0.000000000000, 0.018848909065, 0.013461199589, -0.000000000000, 0.015082213096, -0.000000000000, -0.000000000000, 0.104717195034, -0.006576359272, -0.000000000000, 0.057228002697, -0.000000000000, -0.000000000000, 0.038573760539, -0.000000000000, -0.000000000000, -0.004685844760, 0.005811420735, -0.000000000000, -0.000000000000, 0.067206092179, 0.016281951219, 0.000000000000, -0.000000000000, -0.000000000000, 0.086651198566, 0.000000000000, -0.000000000000, -0.000483572658, -0.000000000000, -0.000000000000, 0.041721969843, -0.000000000000, -0.000000000000, 0.034103386104, -0.000000000000, -0.000000000000, 0.000000000000, 0.000000000000, 0.000000000000, -0.000000000000, -0.019057221711, 0.043066699058, -0.000000000000, -0.010323886760, 0.069673508406, 0.085086554289, -0.000000000000, -0.000000000000, 0.028447320685, 0.000000000000, 0.000000000000, 0.038367830217, 0.058921262622, -0.000000000000, -0.000000000000, 0.000000000000, 0.000000000000, 0.000000000000, -0.000000000000, 0.000000000000, 0.063112542033, -0.008284437470, -0.000000000000, -0.000000000000, 0.000000000003, -0.010253297165, -0.000000000000, -0.000000000000, 0.045665938407, -0.000000000000, 0.035843022168, -0.000000000000, 0.000000000000, -0.000000000000, 0.000091263770, -0.000000000000, -0.000000000000, 0.000000000000, 0.000000000000, 0.000000000000, 0.000559660490, 0.001494958764, -0.000000000713, -0.000000000000, -0.003114114050, 0.083748511970, -0.000710726832, 0.005846081302, -0.000000000000, -0.000000000000, -0.000000000000, 0.000000000000, 0.082777187228, -0.000000000000, 0.000000000000, -0.000000000000, -0.000000000000, 0.000000000000, -0.000000000000, -0.000000000000, -0.004255105741, 0.000000000000, 0.000000000000, 0.000003714134, -0.000000000000, -0.000000000000, -0.000000000000, 0.018599184230, 0.000000000000, -0.000307395938, 0.010782589205, 0.000000000000, 0.078227266669, 0.000000000000, -0.000000000000, 0.000000000000, -0.010495364666, -0.000000000000, 0.000000000000, 0.051588151604, 0.000000000000, -0.000000000000, 0.000476840360, 0.018886113539, 0.000003875725, -0.000000000000, 0.072049722075, 0.001120936940, -0.000000000000, 0.060011807829, -0.000000000000, 0.019530842081, 0.008335882798, -0.000000000000, -0.000000000000, -0.000000000000, -0.000000000000, 0.071511350572, -0.000486279954, 0.000000000000, 0.038369610906, 0.015727188438, 0.000000000000, 0.000000000000, -0.000000000000, 0.000000000000, -0.004962430336, 0.000000000000, -0.008447481319, -0.000000000000, 0.003760842374, -0.001818694640, 0.000000000000, -0.001760979882, -0.000000000000, -0.000000000000, 0.002361652441, 0.000686282641, 0.000000000000, 0.000188986305, 0.000000000000, -0.000000000000, 0.007701060735, -0.000000000000, -0.000000000000, 0.013260433450, 0.003862808924, -0.000000000000, 0.000000000000, 0.000913549564, -0.000049943123, -0.000000000000, 0.000000000000, -0.000000000000, 0.003096281551, -0.000000000000, -0.000000000000, 0.007533774711, -0.000000000000, 0.000000000000, 0.001389025594, 0.000000000000, -0.000000000000, -0.000103189392, 0.000000000001, 0.000000000000, -0.000000000000, -0.000000000000, -0.000000000000, -0.000000000000, 0.002074179240, 0.002401582198, 0.000000000000, 0.019510421902, 0.010248919949, -0.000000251896, -0.000000000000, 0.000000000000, 0.000231711761, -0.000000000000, 0.000000000000, 0.002214377513, 0.003298575291, 0.000000000000, 0.000000000000, 0.000000000000, -0.000000000000, -0.000000000000, 0.000000000000, -0.000000000000, 0.003689536592, -0.001476408914, 0.000000000000, -0.000000000000, 0.000000000000, 0.006954065058, 0.000022727851, -0.000000000000, 0.005716887768, -0.000000000000, 0.001984659350, -0.000000000000, 0.000000000000, -0.000000000000, -0.000000000000, -0.000000000000, -0.000000000000, -0.000000000000, 0.000000000000, 0.000000000000, 0.008962213993, 0.001185851055, 0.000166595870, 0.000000000000, 0.002474551555, 0.010030657984, -0.000579442538, 0.003329302417, -0.000000000000, 0.000000000000, 0.000000000000, 0.000000000000, 0.000921781466, -0.000000000000, -0.000000000000, -0.000000000000, -0.000000000000, -0.000000000000, -0.000000000000, 0.000000000000, -0.000415160321, 0.000000000000, 0.000000000000, -0.001899252413, -0.000000000000, 0.000000000000, -0.000000000000, 0.004026609473, -0.000000000000, 0.019716922194, -0.002420676639, -0.000000000000, 0.007061631419, 0.000000000000, 0.000000000000, -0.000000000000, 0.013294294477, 0.000000000000, -0.000000000000, 0.001955717569, 0.000000000000, -0.000000000000, 0.002104432322, 0.002348444425, 0.000004896484, 0.000000000000, 0.011255216785, 0.002840952948, -0.000000118934, 0.007911738940, 0.000000000000, 0.009571171366, 0.000453074143, 0.000000000000, -0.000000000000, -0.000000000000, -0.000000000000, 0.008423421532, -0.000795060594, -0.000000000000, -0.000001692187, -0.000996443909, -0.000000000000, -0.000000000000, 0.000000000000, 0.000000000000, -0.000141023600, -0.000001830410, -0.002023073612, -0.000000000000, -0.000000000000, -0.000000000000, 0.000000000000, -0.000000000000, -0.000000000000, -0.000000000000, 0.000000000000, -0.000000000000, -0.000000000000, 0.000000000000, -0.000000000000, -0.000000000000, 0.000000000000, 0.000000000000, -0.000000000000, -0.000000000000, 0.000000000000, 0.000000000000, -0.000000000000, 0.000000000000, 0.000000000000, 0.000000000000, -0.000000000000, -0.000000000000, -0.000000000000, 0.000000000000, 0.000000000000, 0.000000000000, 0.000000000000, -0.000000000000, 0.000000000000, -0.000000000000, 0.000000000000, -0.000000000000, 0.000000000000, -0.000000000000, 0.000000000000, 0.000000000000, -0.000000000000, -0.000000000000, -0.000000000000, -0.000000000000, -0.000000000000, -0.000000000000, 0.000000000000, 0.000000000000, 0.000000000000, 0.000000000000, -0.000000000000, 0.000000000000, 0.000000000000, -0.000000000000, -0.000000000000, 0.000000000000, 0.000000000000, 0.000000000000, 0.000000000000, -0.000000000000, -0.000000000000, -0.000000000000, 0.000000000000, 0.000000000000, -0.000000000000, -0.000000000000, -0.000000000000, 0.000000000000, -0.000000000000, 0.000000000000, 0.000000000000, 0.000000000000, -0.000000000000, -0.000000000000, -0.000000000000, -0.000000000000, -0.000000000000, 0.000000000000, 0.000000000000, -0.000000000000, 0.000000000000, 0.000000000000, -0.000000000000, -0.000000000000, -0.000000000000, 0.000000000000, -0.000000000000, 0.000000000000, 0.000000000000, -0.000000000000, 0.000000000000, -0.000000000000, -0.000000000000, -0.000000000000, 0.000000000000, -0.000000000000, -0.000000000000, 0.000000000000, -0.000000000000, 0.000000000000, 0.000000000000, 0.000000000000, 0.000000000000, -0.000000000000, -0.000000000000, 0.000000000000, 0.000000000000, 0.000000000000, 0.000000000000, 0.000000000000, -0.000000000000, 0.000000000000, 0.000000000000, -0.000000000000, -0.000000000000, -0.000000000000, -0.000000000000, -0.000000000000, -0.000000000000, 0.000000000000, -0.000000000000, 0.000000000000, -0.000000000000, 0.000000000000, 0.000000000000, 0.000000000000, 0.000000000000, -0.000000000000, -0.000000000000, -0.000000000000, -0.000000000000, -0.000000000000, 0.000000000000, 0.000000000000, 0.000000000000, -0.000000000000, 0.000000000000, -0.000000000000, 0.000000000000, 0.000000000000, -0.000000000000, -0.000000000000, 0.000000000000, -0.000000000000, 0.000000000000, 0.000000000000, -0.000000000000, 0.000000000000, 0.000000000000, 0.000000000000, -0.000000000000, -0.000000000000, -0.091491885483, -0.047783732414, -0.000000000001, -0.020421493798, 0.000000000000, -0.000000000000, 0.127475947142, -0.006348805502, -0.000000000000, 0.139302492142, 0.000000000000, 0.000000000000, 0.035982217640, -0.000000000000, 0.000000000000, -0.055014327168, 0.001442837762, -0.000000000000, 0.000000000000, 0.230242893100, -0.043485797942, 0.000000000000, 0.000000000000, -0.000000000000, 0.168211743236, -0.000000000000, -0.000000000000, 0.000007981965, -0.000000000000, -0.000000000000, 0.083804391325, 0.000000000000, 0.000000000000, 0.123262681067, -0.000078478770, -0.000000000000, -0.000000000000, -0.000000000000, -0.000000000000, -0.000000000000, -0.142632558942, 0.046882893890, 0.000000000000, 0.026744756848, 0.119839504361, 0.139032557607, 0.000000000000, -0.000000000000, -0.006211874075, -0.000000000000, 0.000000000542, 0.106857538223, 0.151166439056, -0.000000000000, -0.000000000000, 0.000000000000, -0.000000000000, -0.000000000000, -0.000000000000, -0.000000000000, 0.213307723403, 0.002399932127, 0.000000000000, 0.000000000000, -0.001983446302, -0.020047442988, 0.000000000000, -0.000000000000, -0.007629767526, -0.000000000000, 0.193548962474, 0.000014786718, 0.000000000000, -0.000000000000, 0.004705018830, 0.000000000000, -0.000000000000, -0.000000000036, -0.000000000028, -0.000000000000, 0.015256071463, 0.000000000000, -0.020952405408, -0.000000000000, -0.006785394624, 0.150460049510, -0.000006706060, -0.024469485506, 0.000000000000, -0.000000000000, -0.000000000000, -0.000000000000, 0.151012778282, -0.000000000000, 0.000000000000, 0.000000000000, -0.000000000000, -0.000000000000, -0.000000000000, -0.006483268458, 0.002902551554, -0.000000000000, -0.000000000000, -0.003216093639, -0.000000000000, -0.000000000000, -0.000000000000, 0.011838153005, -0.000000000000, -0.061916634440, -0.050848573446, -0.000000000000, 0.126133814454, -0.000000000000, -0.000000000000, -0.000000000008, -0.039347682148, -0.000000000000, -0.000000000000, 0.237254783511, 0.000000000000, -0.000000000000, -0.103564724326, -0.004168404266, -0.000185702593, -0.000000000000, 0.260647743940, -0.124631077051, -0.000000000000, 0.241875961423, -0.000000000000, -0.004395902157, -0.054204743356, -0.000000000000, -0.000000000000, 0.000000000000, -0.000000000000, 0.203667059541, -0.001275733579, 0.000000000000, 0.074942760170, 0.012292947620, 0.000000000000, 0.000000000000, -0.000000001697, -0.000000000000, -0.022147810087, -0.000467122300, -0.021113127470, 0.000000000000, 0.000000000000, 0.000000000000, 0.000000000000, 0.000000000000, 0.000000000000, 0.000000000000, -0.000000000000, 0.000000000000, -0.000000000000, -0.000000000000, -0.000000000000, 0.000000000000, 0.000000000000, -0.000000000000, 0.000000000000, -0.000000000000, 0.000000000000, 0.000000000000, 0.000000000000, -0.000000000000, 0.000000000000, 0.000000000000, 0.000000000000, -0.000000000000, -0.000000000000, -0.000000000000, -0.000000000000, 0.000000000000, -0.000000000000, 0.000000000000, -0.000000000000, 0.000000000000, -0.000000000000, -0.000000000000, 0.000000000000, -0.000000000000, 0.000000000000, -0.000000000000, 0.000000000000, 0.000000000000, -0.000000000000, -0.000000000000, 0.000000000000, -0.000000000000, 0.000000000000, -0.000000000000, 0.000000000000, -0.000000000000, 0.000000000000, -0.000000000000, 0.000000000000, -0.000000000000, -0.000000000000, -0.000000000000, -0.000000000000, 0.000000000000, 0.000000000000, 0.000000000000, 0.000000000000, 0.000000000000, -0.000000000000, 0.000000000000, 0.000000000000, 0.000000000000, -0.000000000000, 0.000000000000, 0.000000000000, 0.000000000000, 0.000000000000, 0.000000000000, -0.000000000000, 0.000000000000, -0.000000000000, -0.000000000000, -0.000000000000, -0.000000000000, -0.000000000000, 0.000000000000, -0.000000000000, 0.000000000000, -0.000000000000, 0.000000000000, 0.000000000000, -0.000000000000, 0.000000000000, -0.000000000000, 0.000000000000, 0.000000000000, -0.000000000000, 0.000000000000, -0.000000000000, -0.000000000000, -0.000000000000, -0.000000000000, 0.000000000000, -0.000000000000, -0.000000000000, -0.000000000000, -0.000000000000, 0.000000000000, 0.000000000000, 0.000000000000, 0.000000000000, 0.000000000000, -0.000000000000, 0.000000000000, -0.000000000000, 0.000000000000, 0.000000000000, -0.000000000000, 0.000000000000, 0.000000000000, -0.000000000000, 0.000000000000, -0.000000000000, -0.000000000000, -0.000000000000, 0.000000000000, 0.000000000000, -0.000000000000, 0.000000000000, -0.000000000000, 0.000000000000, -0.000000000000, 0.000000000000, -0.000000000000, 0.000000000000, 0.000000000000, 0.000000000000, -0.000000000000, -0.000000000000, -0.000000000000, -0.000000000000, -0.000000000000, 0.000000000000, -0.000000000000, 0.000000000000, -0.000000000000, 0.000000000000, 0.000000000000, -0.000000000000, 0.000000000000, -0.000000000000, -0.000000000000, -0.000000000000, -0.000000000000, 0.000000000000, 0.000000000000, 0.000000000000, -0.000000000000, 0.034101754427, 0.022909646854, 0.000000000000, 0.016994481906, 0.000000000000, -0.000000000000, -0.022414417937, 0.009012781084, 0.000000000000, -0.020519755781, 0.000000000000, -0.000000000000, 0.001842214959, 0.000000000000, -0.000000000000, -0.011740397662, 0.001234591356, 0.000000000000, 0.000000000000, -0.027543302625, 0.003551137634, -0.000000000000, -0.000000000000, -0.000000000000, -0.028405057266, 0.000000000000, 0.000000000000, 0.008989260532, -0.000000000000, -0.000000000000, -0.028814874589, 0.000000000000, 0.000000000000, -0.020271483809, 0.000000000000, -0.000000000000, 0.000000000000, 0.000000000000, -0.000000000000, -0.000000000000, 0.036977231503, -0.030419450253, -0.000000000000, -0.005385673139, -0.020389439538, 0.009597600438, -0.000000000000, -0.000000000000, 0.020563729107, -0.000000000000, -0.000000000000, -0.016170451418, -0.020644325763, 0.000000000000, 0.000000000000, -0.000000000000, -0.000000000000, 0.000000000000, 0.000000000000, -0.000000000000, -0.018100857735, -0.004203398712, -0.000000000000, 0.000000000000, -0.000000000000, 0.006049319636, 0.000000000000, -0.000000000000, -0.001280523255, 0.000000000000, -0.024588175118, 0.000000000000, 0.000000000000, -0.000000000000, -0.000000000000, -0.000000000000, -0.000000000000, 0.000000000000, -0.000000000000, 0.000000000000, -0.007096284069, 0.026260450482, -0.009269990958, -0.000000000000, -0.003182914108, -0.023943811655, 0.000000000000, 0.001256023534, 0.000000000000, 0.000000000000, 0.000000000000, 0.000000000000, -0.026649791747, 0.000000000000, -0.000000000000, 0.000000000000, -0.000000000000, -0.000000000000, -0.000000000000, -0.000000000000, 0.010486904532, 0.000000000000, -0.000000000000, 0.008622530848, 0.000000000000, -0.000000000000, 0.000000000000, 0.001732488861, -0.000000000000, -0.006604424212, 0.031490560621, -0.000000000000, -0.023138405755, 0.000000000000, 0.000000000000, -0.000000000000, -0.015039253980, -0.000000000000, -0.000000000000, -0.028345003724, 0.000000000000, 0.000000000000, 0.041186761111, 0.009143270552, 0.003566931235, 0.000000000000, -0.021066062152, 0.036400526762, -0.000000000000, -0.018982920796, 0.000000000000, 0.009992364794, 0.031276211143, 0.000000000000, -0.000000000000, 0.000000000000, -0.000000000000, -0.020792914554, -0.008755330928, 0.000000000000, 0.001944954740, 0.005202351604, 0.000000000000, 0.000000000000, -0.000000000000, 0.000000000000, -0.035927698016, 0.003908128012, -0.017092304304, -0.000000000000, -0.012550248764, -0.036808323115, 0.000000001037, -0.002712487010, -0.000000000000, 0.000000000000, -0.015200489201, -0.015638830140, -0.000000000000, -0.061628211290, -0.000000000000, -0.000000000000, 0.018915463239, -0.000000000000, -0.000000000000, 0.173445895314, 0.007925170474, -0.000000000000, 0.000000000000, 0.227622672915, -0.021351313218, 0.000000000000, -0.000000000000, -0.000000000000, -0.039557617158, -0.000000000000, 0.000000000000, 0.006835227367, -0.000000000000, 0.000000000000, 0.059662353247, -0.000000000000, -0.000000000000, -0.024201428518, -0.000189080340, -0.000000000000, -0.000000000000, -0.000000000000, -0.000000000000, -0.000000000000, -0.050588667393, 0.122204124928, 0.000000000000, 0.129655197263, 0.188555151224, -0.114810161293, -0.000000000000, -0.000000000000, 0.007273075636, -0.000000000000, 0.000000290099, 0.238100692630, 0.086631119251, -0.000000000000, -0.000000000000, -0.000000000000, -0.000000000000, 0.000000000000, -0.000000000000, 0.000000000000, 0.185123801231, 0.001530180802, -0.000000000000, -0.000000000000, -0.001711716643, 0.006294444669, -0.000000000242, -0.000000000000, -0.048171021044, 0.000000000000, 0.027705652639, 0.000068197020, -0.000000000000, -0.000000000000, 0.017942134291, -0.000000000000, -0.000000000000, -0.000000000025, -0.000000000000, -0.000000000000, 0.164099425077, -0.000015803669, 0.028469244018, -0.000000000000, -0.012343975715, 0.138866543770, 0.000113272814, -0.065363146365, -0.000000000000, 0.000000000000, 0.000000000000, -0.000000000000, 0.017866000533, 0.000000000000, -0.000000000000, -0.000000000000, 0.000000000000, -0.000000000000, -0.000000000000, -0.009748150595, 0.007619814947, -0.000000000000, -0.000000000000, -0.007157551590, 0.000000000000, 0.000000000000, -0.000000000000, 0.013157021254, -0.000000000000, 0.080779239535, -0.029123343527, 0.000000000000, 0.127909958363, -0.000000000001, 0.000000000000, 0.000000002021, 0.200893819332, 0.000000000000, 0.000000000000, 0.167427644134, -0.000000000000, -0.000000000000, -0.033085785806, -0.013022826985, -0.000284082751, 0.000000000000, 0.199785128236, -0.057288646698, -0.000000000000, 0.245438992977, 0.000000000000, -0.051188178360, -0.048243783414, 0.000000000000, -0.000000000000, -0.000000000000, 0.000000000000, 0.094536349177, -0.000903577311, -0.000000000000, -0.073439985514, 0.008484316990, 0.000000000000, -0.000000000000, 0.000000414696, -0.000000000000, -0.016515316442, -0.000494885026, -0.012793905102, 0.000000000000, 0.119569957256, 0.046761017293, -0.000000000000, 0.027176555246, -0.000000000000, 0.000000000000, -0.098332703114, 0.081570871174, -0.000000000000, -0.064150370657, -0.000000000000, -0.000000000000, 0.082442581654, -0.000000000000, -0.000000000000, -0.117008991539, 0.036153361201, -0.000000000000, -0.000000000000, -0.097057133913, 0.022564923391, -0.000000000000, 0.000000000000, -0.000000000000, -0.040168382227, -0.000000000000, -0.000000000000, 0.054227199405, -0.000000000000, 0.000000000000, -0.088009595871, -0.000000000000, -0.000000000000, -0.067285634577, -0.001559531316, -0.000000000000, -0.000000000000, -0.000000000000, -0.000000000000, -0.000000000003, 0.143910095096, -0.072595499456, -0.000000000000, -0.037770863622, -0.109371595085, -0.078880615532, -0.000000000000, -0.000000000000, 0.013913787901, 0.000000000000, 0.000000000000, -0.088642261922, -0.107291132212, -0.000000000000, -0.000000000000, 0.000000000000, -0.000000000000, -0.000000000000, -0.000000000000, 0.000000000000, -0.068243071437, 0.031342417002, -0.000000000133, -0.000000000000, -0.000000000000, 0.075866721570, 0.000345023145, -0.000000000000, 0.044574920088, -0.000000000000, -0.086708813906, 0.000000000000, 0.000000000000, -0.000000000000, -0.000017901697, -0.000000000000, -0.000000000000, -0.000000000000, -0.000000000000, -0.000000000000, -0.063174530864, -0.001848400454, -0.007069300395, -0.000000000000, 0.060438875109, -0.145854130387, -0.003237316385, 0.114519521594, -0.000000000000, -0.000000000000, -0.000000000000, -0.000000000000, -0.026745162904, 0.000000000000, -0.000000000000, -0.000000000000, -0.000000000000, -0.000000000000, -0.000000000000, -0.000075499309, 0.030545696616, -0.000000000000, -0.000000000000, 0.008448322304, 0.000000000000, 0.000000000000, -0.000000000000, 0.058685779572, -0.000000000000, -0.064325831831, 0.030417036265, -0.000000000000, -0.129012539983, -0.000000000251, 0.000000000000, -0.000000000000, -0.097452826798, -0.000000000000, -0.000000000000, -0.101025715470, -0.000000000000, -0.000000000000, 0.060281194746, 0.013888007961, 0.027253421023, -0.000000000000, -0.071239292622, 0.094482161105, -0.005479342304, -0.103881441057, -0.000000000000, 0.111383900046, 0.043887998909, -0.000000000000, -0.000000000000, -0.000000000000, -0.000000000000, -0.119271472096, 0.008908673190, -0.000000000000, -0.020470341668, 0.067610338330, -0.000000000000, -0.000000000000, -0.000000000000, -0.000000000000, -0.012511822395, -0.012703748420, -0.020861415192, 0.000000000000, -0.000000000000, 0.000000000000, 0.000000000000, -0.000000000000, 0.000000000000, 0.000000000000, -0.000000000000, 0.000000000000, -0.000000000000, -0.000000000000, -0.000000000000, -0.000000000000, -0.000000000000, -0.000000000000, 0.000000000000, 0.000000000000, -0.000000000000, 0.000000000000, 0.000000000000, 0.000000000000, 0.000000000000, 0.000000000000, 0.000000000000, 0.000000000000, 0.000000000000, 0.000000000000, -0.000000000000, 0.000000000000, 0.000000000000, 0.000000000000, -0.000000000000, -0.000000000000, -0.000000000000, -0.000000000000, 0.000000000000, 0.000000000000, -0.000000000000, -0.000000000000, 0.000000000000, 0.000000000000, 0.000000000000, -0.000000000000, -0.000000000000, 0.000000000000, -0.000000000000, -0.000000000000, 0.000000000000, -0.000000000000, 0.000000000000, -0.000000000000, -0.000000000000, 0.000000000000, 0.000000000000, 0.000000000000, 0.000000000000, -0.000000000000, -0.000000000000, 0.000000000000, 0.000000000000, -0.000000000000, -0.000000000000, 0.000000000000, 0.000000000000, 0.000000000000, -0.000000000000, -0.000000000000, -0.000000000000, 0.000000000000, 0.000000000000, 0.000000000000, -0.000000000000, -0.000000000000, 0.000000000000, -0.000000000000, -0.000000000000, 0.000000000000, -0.000000000000, 0.000000000000, -0.000000000000, -0.000000000000, 0.000000000000, -0.000000000000, -0.000000000000, 0.000000000000, -0.000000000000, -0.000000000000, 0.000000000000, -0.000000000000, 0.000000000000, 0.000000000000, -0.000000000000, 0.000000000000, 0.000000000000, 0.000000000000, 0.000000000000, 0.000000000000, -0.000000000000, -0.000000000000, -0.000000000000, -0.000000000000, 0.000000000000, -0.000000000000, 0.000000000000, -0.000000000000, 0.000000000000, 0.000000000000, 0.000000000000, 0.000000000000, -0.000000000000, 0.000000000000, -0.000000000000, -0.000000000000, -0.000000000000, 0.000000000000, -0.000000000000, -0.000000000000, -0.000000000000, -0.000000000000, 0.000000000000, -0.000000000000, -0.000000000000, 0.000000000000, 0.000000000000, -0.000000000000, -0.000000000000, 0.000000000000, -0.000000000000, 0.000000000000, -0.000000000000, 0.000000000000, 0.000000000000, 0.000000000000, 0.000000000000, 0.000000000000, -0.000000000000, 0.000000000000, 0.000000000000, 0.000000000000, 0.000000000000, -0.000000000000, -0.000000000000, 0.000000000000, -0.000000000000, -0.000000000000, -0.000000000000, -0.000000000000, 0.000000000000, 0.000000000000, 0.000000000000, 0.000000000000, 0.167664259672, 0.075964771211, 0.000000000000, 0.051577780396, -0.000000000000, -0.000000000000, -0.046500440687, 0.096289426088, 0.000000000000, -0.028760829940, 0.000000000000, -0.000000000000, 0.091997697949, -0.000000000000, 0.000000000000, -0.027254987508, 0.088318005204, -0.000000000000, -0.000000000000, -0.068092294037, 0.115868002176, 0.000000000000, 0.000000000000, -0.000000000000, -0.023352483287, 0.000000000000, 0.000000000000, 0.080102175474, -0.000000000000, -0.000000000000, -0.020001482219, 0.000000000000, 0.000000000000, -0.012144235894, -0.000210634185, -0.000000000000, -0.000000000000, -0.000000000000, -0.000000000000, -0.000000000000, 0.151375368237, -0.017060702667, -0.000000000000, -0.010954567231, -0.044230077416, -0.026222653687, -0.000000000000, -0.000000000000, 0.077243126929, 0.000000000000, -0.000000000000, -0.058798208833, -0.049038823694, -0.000000000000, -0.000000000000, 0.000000000000, 0.000000000000, -0.000000000000, -0.000000000000, -0.000000000000, -0.043459035456, 0.060455899686, -0.000000000000, 0.000000000000, 0.000000000000, 0.107850410044, -0.003637727583, -0.000000000000, 0.166742876172, 0.000000000000, -0.032700125128, 0.000000000000, 0.000000000000, -0.000000000000, 0.000000000000, -0.000000000000, -0.000000000000, 0.000000000000, 0.000000000000, -0.000000000000, -0.012801780365, 0.003658720059, -0.001525316853, 0.000000000000, 0.051561731845, -0.035103727132, 0.001084518968, 0.143688604236, -0.000000000000, -0.000000000000, -0.000000000000, 0.000000000000, -0.008309819736, 0.000000000000, -0.000000000000, 0.000000000000, -0.000000000000, -0.000000000000, 0.000000000000, -0.000014640885, 0.031444840133, -0.000000000000, -0.000000000000, 0.039751205593, -0.000000000000, -0.000000000000, 0.000000000000, 0.061315376312, 0.000000000000, -0.024560168386, 0.059367943555, 0.000000000000, -0.034071508795, -0.000000000000, -0.000000000000, 0.000000000000, -0.044402003288, 0.000000000000, 0.000000000000, -0.052360035479, -0.000000000000, -0.000000000000, 0.130853474140, 0.146748125553, 0.010140250437, 0.000000000000, -0.024773484096, 0.084552757442, -0.000749193598, -0.033787887543, -0.000000000000, 0.114082626998, 0.174880534410, -0.000000000000, -0.000000000000, -0.000000000000, -0.000000000000, -0.068897604942, 0.031471624970, -0.000000000000, 0.008975852281, 0.087975293398, 0.000000000000, 0.000000000000, -0.000000000000, -0.000000000000, -0.007782454602, -0.001947328798, 0.035518605262, -0.000000000000, 0.030340019614, 0.001750916243, -0.000000000000, 0.006982124411, -0.000000000000, -0.000000000000, 0.047903917730, -0.004991182592, 0.000000000000, 0.013359980658, -0.000000000000, 0.000000000000, 0.024149470031, -0.000000000000, -0.000000000000, 0.018462322652, -0.009967486374, -0.000000000000, -0.000000000000, 0.085658028722, 0.014132757671, 0.000000000000, 0.000000000000, -0.000000000000, 0.017601231113, 0.000000000000, -0.000000000000, -0.008891697973, 0.000000000000, 0.000000000000, 0.045500177890, -0.000000000000, -0.000000000000, 0.021510049701, -0.000000000000, 0.000000000000, -0.000000000000, 0.000000000000, -0.000000000000, 0.000000000000, 0.002135684248, 0.053801476955, 0.000000000000, -0.004342861474, 0.066747270525, 0.039167489856, 0.000000000000, -0.000000000000, 0.009215185419, -0.000000000000, 0.000000000000, 0.034337993711, 0.052358679473, -0.000000000000, 0.000000000000, -0.000000000000, -0.000000000000, -0.000000000000, -0.000000000000, -0.000000000000, 0.057591821998, -0.003733304562, 0.000000000000, 0.000000000000, 0.000000681827, -0.012542883866, -0.000000000000, -0.000000000000, 0.018480325118, -0.000000000000, 0.039032239467, -0.000000000000, 0.000000000000, -0.000000000000, -0.000168054452, 0.000000000000, -0.000000000000, -0.000000000000, -0.000000000000, -0.000000000000, 0.005451245233, -0.000000004756, -0.002473474713, 0.000000000000, -0.003846921260, 0.065744236112, -0.000000001088, 0.010512623936, 0.000000000000, 0.000000000000, -0.000000000000, 0.000000000000, 0.056655831635, -0.000000000000, -0.000000000000, -0.000000000000, 0.000000000000, -0.000000000000, -0.000000000000, -0.000000003686, -0.000540926179, -0.000000000000, 0.000000000000, 0.001918529160, 0.000000000000, 0.000000000000, 0.000000000000, 0.016367482021, 0.000000000000, 0.008178801276, 0.010237399489, -0.000000000000, 0.075860247016, -0.000000000000, 0.000000000000, -0.000000000000, 0.007917298004, 0.000000000000, -0.000000000000, 0.047134730965, 0.000000000000, -0.000000000000, 0.006111126859, 0.020037941635, 0.000000000000, 0.000000000000, 0.074126973748, 0.011789085343, 0.000000000000, 0.084393970668, -0.000000000000, 0.027467899024, 0.017463145778, 0.000000000000, -0.000000000000, 0.000000000000, -0.000000000000, 0.067679792643, -0.001026188722, 0.000000000000, 0.023104708642, 0.002914647339, -0.000000000000, 0.000000000000, -0.000000000000, -0.000000000000, -0.001626186073, 0.000000000000, 0.008600025438, 0.000000000000, 0.075627334416, 0.037292238325, -0.000000000000, 0.020530717447, -0.000000000000, -0.000000000000, -0.009959834628, 0.053841948509, -0.000000000000, -0.008800231852, 0.000000000000, -0.000000000000, 0.099826782942, -0.000000000000, -0.000000000000, -0.003960500937, 0.059893228114, -0.000000000000, -0.000000000000, -0.010738600045, 0.034352190793, -0.000000000000, -0.000000000000, -0.000000000000, -0.004573998041, -0.000000000000, -0.000000000000, 0.042187027633, 0.000000000000, 0.000000000000, -0.001706925919, -0.000000000000, -0.000000000000, -0.034993138164, -0.000006978363, 0.000000000000, -0.000000000000, -0.000000000000, -0.000000000000, -0.000000000000, 0.079347714782, -0.002308661118, 0.000000000000, 0.000000013845, 0.014947082847, -0.020274639130, 0.000000000000, 0.000000000000, 0.070591069758, 0.000000000000, -0.000000000000, 0.002058996819, -0.028439484537, -0.000000000000, -0.000000000000, 0.000000000000, -0.000000000000, 0.000000000000, -0.000000000000, -0.000000000000, -0.021570870653, 0.016988405958, 0.000000000000, -0.000000000000, 0.000000000000, 0.059450533241, 0.001836198382, -0.000000000000, 0.091861218214, -0.000000000000, -0.016082271934, -0.000000000000, -0.000000000000, -0.000000000000, -0.000000000000, -0.000000000000, -0.000000000000, 0.000000000000, -0.000000000000, -0.000000000000, -0.001607307815, 0.002057366073, -0.000000140170, -0.000000000000, 0.046938117594, 0.003971624654, -0.002162244171, 0.083881936967, -0.000000000000, -0.000000000000, -0.000000000000, -0.000000000000, -0.002461763332, 0.000000000000, 0.000000000000, -0.000000000000, -0.000000000000, 0.000000000000, 0.000000000000, -0.000000029807, 0.003087572288, -0.000000000000, 0.000000000000, 0.006270876620, 0.000000000000, 0.000000000000, -0.000000000000, 0.084779538214, -0.000000000000, -0.004069431219, 0.013794058934, -0.000000000000, 0.006967828609, -0.000000000000, 0.000000000000, 0.000000000000, -0.002133739414, -0.000000000000, -0.000000000000, -0.006102130748, -0.000000000000, -0.000000000000, 0.087338395417, 0.036996837705, -0.005511920433, -0.000000000000, 0.003171209479, 0.064689010382, 0.000845718663, 0.003491399810, -0.000000000000, 0.108165889978, 0.086308613420, 0.000000000000, -0.000000000000, 0.000000000000, -0.000000000000, -0.017669605091, 0.004099268001, -0.000000000000, -0.035972565413, 0.049181953073, -0.000000000000, 0.000000000000, -0.000000000000, 0.000000000000, -0.010093666613, -0.000482841104, 0.008269333281, -0.000000000000, -0.000000000000, 0.000000000000, -0.000000000000, -0.000000000000, 0.000000000000, -0.000000000000, -0.000000000000, 0.000000000000, 0.000000000000, -0.000000000000, -0.000000000000, 0.000000000000, 0.000000000000, -0.000000000000, 0.000000000000, 0.000000000000, 0.000000000000, 0.000000000000, -0.000000000000, -0.000000000000, 0.000000000000, 0.000000000000, -0.000000000000, 0.000000000000, -0.000000000000, -0.000000000000, -0.000000000000, -0.000000000000, -0.000000000000, -0.000000000000, 0.000000000000, -0.000000000000, 0.000000000000, 0.000000000000, -0.000000000000, 0.000000000000, -0.000000000000, -0.000000000000, 0.000000000000, -0.000000000000, -0.000000000000, 0.000000000000, -0.000000000000, -0.000000000000, 0.000000000000, -0.000000000000, 0.000000000000, -0.000000000000, -0.000000000000, 0.000000000000, 0.000000000000, 0.000000000000, 0.000000000000, -0.000000000000, -0.000000000000, -0.000000000000, 0.000000000000, 0.000000000000, 0.000000000000, -0.000000000000, 0.000000000000, -0.000000000000, -0.000000000000, 0.000000000000, 0.000000000000, -0.000000000000, -0.000000000000, -0.000000000000, 0.000000000000, 0.000000000000, -0.000000000000, -0.000000000000, -0.000000000000, 0.000000000000, 0.000000000000, -0.000000000000, -0.000000000000, -0.000000000000, -0.000000000000, -0.000000000000, -0.000000000000, 0.000000000000, 0.000000000000, 0.000000000000, 0.000000000000, 0.000000000000, -0.000000000000, 0.000000000000, -0.000000000000, 0.000000000000, 0.000000000000, -0.000000000000, -0.000000000000, 0.000000000000, -0.000000000000, -0.000000000000, -0.000000000000, -0.000000000000, -0.000000000000, -0.000000000000, -0.000000000000, -0.000000000000, -0.000000000000, -0.000000000000, 0.000000000000, 0.000000000000, 0.000000000000, 0.000000000000, -0.000000000000, -0.000000000000, 0.000000000000, -0.000000000000, -0.000000000000, -0.000000000000, -0.000000000000, 0.000000000000, -0.000000000000, 0.000000000000, 0.000000000000, 0.000000000000, -0.000000000000, -0.000000000000, -0.000000000000, -0.000000000000, -0.000000000000, -0.000000000000, 0.000000000000, 0.000000000000, 0.000000000000, 0.000000000000, -0.000000000000, 0.000000000000, 0.000000000000, -0.000000000000, -0.000000000000, -0.000000000000, -0.000000000000, -0.000000000000, -0.000000000000, 0.000000000000, -0.000000000000, 0.000000000000, -0.000000000000, -0.000000000000, 0.000000000000, 0.000000000000, -0.000000000000, 0.000000000000, 0.000000000000, -0.000000000000, 0.134929805994, 0.053751394153, -0.000000000000, 0.040835473686, -0.000000000000, -0.000000000000, -0.024606972933, 0.071058712900, 0.000000000000, -0.008752596565, -0.000000000000, -0.000000000000, 0.111619874835, -0.000000000000, -0.000000000000, -0.015788685530, 0.076661698520, 0.000000000000, -0.000000000000, -0.027866588905, 0.084053225815, 0.000000000000, -0.000000000000, -0.000000000000, -0.022948350757, -0.000000000000, -0.000000000000, 0.094823956490, -0.000000000000, -0.000000000000, -0.010171446949, 0.000000000000, -0.000000000000, -0.014139334671, -0.000015519281, -0.000000000000, -0.000000000000, -0.000000000000, -0.000000000000, -0.000000000000, 0.142752870917, -0.012820577249, -0.000000000000, -0.000000043439, 0.004021216184, -0.025202801451, 0.000000000000, -0.000000000000, 0.067530065775, -0.000000000000, 0.000000000000, 0.020997215062, -0.022456282750, -0.000000000000, -0.000000000000, -0.000000000000, 0.000000000000, -0.000000000000, -0.000000000000, 0.000000000000, -0.020170021802, 0.014657460153, 0.000000000000, 0.000000000000, -0.000000000000, 0.133861199021, 0.003728572978, -0.000000000000, 0.153238415718, -0.000000000000, -0.018966410309, -0.000000000000, -0.000000000000, -0.000000000000, 0.000000000000, 0.000000000000, 0.000000000000, -0.000000000000, -0.000000000000, 0.000000000000, -0.010773464106, 0.030695447698, 0.000364221050, -0.000000000000, 0.088795721531, -0.014158660546, 0.006459685043, 0.112151980400, -0.000000000000, -0.000000000000, 0.000000000000, -0.000000000000, 0.003650177270, -0.000000000000, -0.000000000000, 0.000000000000, -0.000000000000, -0.000000000000, -0.000000000000, 0.000000365679, 0.011049387045, -0.000000000000, -0.000000000000, 0.024809939787, 0.000000000000, 0.000000000000, -0.000000000000, 0.083606548607, -0.000000000000, -0.019560821354, 0.038939196616, -0.000000000000, -0.018198180944, -0.000000000000, -0.000000000000, -0.000000000000, -0.014475695789, -0.000000000000, 0.000000000000, -0.019485630095, 0.000000000000, -0.000000000000, 0.170893087983, 0.087731793523, 0.005218539853, -0.000000000000, 0.007080642506, 0.126327514648, 0.001195186400, 0.000910603849, -0.000000000000, 0.139657780528, 0.120428889990, 0.000000000000, -0.000000000000, 0.000000000000, -0.000000000000, -0.041957739741, 0.015232519247, -0.000000000000, -0.019747473300, 0.072200529277, -0.000000000000, 0.000000000000, -0.000000000000, 0.000000000000, -0.007349810097, 0.001408908283, 0.026170952246, -0.000000000000, 0.023204840720, -0.047228865325, -0.000000000000, -0.037854563445, 0.000000000000, -0.000000000000, 0.127079874277, -0.095691181719, 0.000000000000, 0.005390044767, 0.000000000000, -0.000000000000, -0.107376344502, -0.000000000000, -0.000000000000, -0.139365658164, -0.076571531594, -0.000000000000, -0.000000000000, 0.059918124229, -0.035822544247, 0.000000000000, -0.000000000000, -0.000000000000, 0.081718742847, -0.000000000000, -0.000000000000, -0.108624674380, -0.000000000000, -0.000000000000, 0.058746382594, -0.000000000000, 0.000000000000, -0.032701265067, -0.000130444954, -0.000000000000, -0.000000000000, -0.000000000000, -0.000000000000, -0.000000000000, 0.005818779115, 0.033561456949, -0.000000000000, -0.062392741442, 0.136155292392, 0.100565269589, -0.000000000000, 0.000000000025, -0.072988346219, -0.000000000000, -0.000000000000, -0.061436999589, -0.046837314963, 0.000000000000, -0.000000000000, 0.000000000000, -0.000000000000, -0.000000000000, -0.000000000000, -0.000000000000, -0.003953896463, -0.039509098977, -0.000000000000, 0.000000000000, 0.000226821416, -0.080205298960, -0.000122085024, -0.000000000000, -0.097544491291, 0.000000000000, 0.090554393828, -0.000000331466, -0.000000000000, -0.000000000000, 0.002472291002, 0.000000000000, -0.000000000000, -0.000000000007, 0.000000004432, -0.000000000000, -0.090957328677, -0.024014070630, -0.018819293007, -0.000000000000, -0.113188982010, 0.041414625943, -0.011952089146, -0.113552398980, 0.000000000000, -0.000000000000, -0.000000000000, -0.000000000000, 0.063860833645, -0.000000000000, -0.000000000000, -0.000000000000, -0.000000000000, -0.000000000000, -0.000000000000, -0.000070143367, -0.033902764320, -0.000000000000, -0.000000000000, -0.048838395625, 0.000000000000, 0.000000000000, -0.000000000000, -0.095661699772, -0.000000000000, -0.079103842378, -0.021047413349, -0.000000000000, 0.065411314368, -0.000000000010, -0.000000000000, -0.000000000000, -0.090997040272, -0.000000000000, -0.000000000000, 0.089424267411, -0.000000000000, -0.000000000000, -0.086921356618, -0.108506366611, -0.010639864020, -0.000000000000, 0.116707012057, -0.000785618264, 0.000000536003, 0.134819328785, -0.000000000000, -0.114210307598, -0.020326338708, -0.000000000000, -0.000000000000, 0.000000000000, 0.000000000000, 0.029459187761, -0.022974533960, -0.000000000000, 0.029272822663, -0.066124133766, 0.000000000000, -0.000000000000, -0.000000000000, -0.000000000000, -0.023848393932, -0.001607737620, -0.058796063066, 0.000000000000, -0.000000000000, -0.000000000000, -0.000000000000, -0.000000000000, -0.000000000000, 0.000000000000, 0.000000000000, -0.000000000000, 0.000000000000, 0.000000000000, 0.000000000000, 0.000000000000, -0.000000000000, -0.000000000000, -0.000000000000, -0.000000000000, -0.000000000000, 0.000000000000, 0.000000000000, 0.000000000000, -0.000000000000, -0.000000000000, 0.000000000000, -0.000000000000, 0.000000000000, -0.000000000000, 0.000000000000, -0.000000000000, 0.000000000000, 0.000000000000, 0.000000000000, 0.000000000000, -0.000000000000, 0.000000000000, -0.000000000000, -0.000000000000, 0.000000000000, 0.000000000000, -0.000000000000, -0.000000000000, -0.000000000000, 0.000000000000, 0.000000000000, -0.000000000000, 0.000000000000, 0.000000000000, 0.000000000000, 0.000000000000, 0.000000000000, 0.000000000000, 0.000000000000, 0.000000000000, 0.000000000000, 0.000000000000, -0.000000000000, 0.000000000000, -0.000000000000, -0.000000000000, 0.000000000000, -0.000000000000, 0.000000000000, -0.000000000000, 0.000000000000, -0.000000000000, 0.000000000000, -0.000000000000, 0.000000000000, 0.000000000000, -0.000000000000, -0.000000000000, 0.000000000000, 0.000000000000, 0.000000000000, 0.000000000000, 0.000000000000, -0.000000000000, -0.000000000000, 0.000000000000, 0.000000000000, 0.000000000000, -0.000000000000, 0.000000000000, 0.000000000000, 0.000000000000, -0.000000000000, 0.000000000000, -0.000000000000, 0.000000000000, 0.000000000000, 0.000000000000, 0.000000000000, -0.000000000000, 0.000000000000, 0.000000000000, -0.000000000000, 0.000000000000, -0.000000000000, 0.000000000000, 0.000000000000, 0.000000000000, -0.000000000000, -0.000000000000, 0.000000000000, 0.000000000000, -0.000000000000, 0.000000000000, 0.000000000000, -0.000000000000, 0.000000000000, -0.000000000000, -0.000000000000, -0.000000000000, 0.000000000000, -0.000000000000, 0.000000000000, 0.000000000000, 0.000000000000, -0.000000000000, -0.000000000000, 0.000000000000, 0.000000000000, 0.000000000000, -0.000000000000, -0.000000000000, -0.000000000000, -0.000000000000, 0.000000000000, -0.000000000000, -0.000000000000, 0.000000000000, 0.000000000000, 0.000000000000, -0.000000000000, -0.000000000000, 0.000000000000, 0.000000000000, 0.000000000000, 0.000000000000, 0.000000000000, 0.000000000000, 0.000000000000, -0.000000000000, -0.000000000000, -0.000000000000, -0.000000000000, -0.000000000000, -0.000000000000, -0.000000000000, 0.000000000000, -0.000000000000, -0.000000000000, 0.000000000000, -0.000000000000, 0.000000000000, -0.000000000000, 0.000000000000, 0.000000000000, -0.000000000000, -0.000000000000, 0.000000000000, -0.000000000000, -0.000000000000, 0.000000000000, -0.000000000000, -0.000000000000, -0.000000000000, 0.000000000000, -0.000000000000, -0.000000000000, 0.000000000000, -0.000000000000, 0.000000000000, -0.000000000000, -0.000000000000, 0.000000000000, 0.000000000000, -0.000000000000, -0.000000000000, -0.000000000000, -0.000000000000, -0.000000000000, -0.000000000000, -0.000000000000, 0.000000000000, -0.000000000000, -0.000000000000, -0.000000000000, 0.000000000000, 0.000000000000, 0.000000000000, 0.000000000000, -0.000000000000, -0.000000000000, -0.000000000000, -0.000000000000, 0.000000000000, 0.000000000000, 0.000000000000, 0.000000000000, -0.000000000000, 0.000000000000, 0.000000000000, 0.000000000000, -0.000000000000, 0.000000000000, 0.000000000000, 0.000000000000, 0.000000000000, -0.000000000000, 0.000000000000, 0.000000000000, -0.000000000000, -0.000000000000, -0.000000000000, 0.000000000000, -0.000000000000, -0.000000000000, 0.000000000000, -0.000000000000, -0.000000000000, 0.000000000000, -0.000000000000, -0.000000000000, 0.000000000000, -0.000000000000, 0.000000000000, 0.000000000000, -0.000000000000, -0.000000000000, 0.000000000000, -0.000000000000, 0.000000000000, -0.000000000000, 0.000000000000, -0.000000000000, 0.000000000000, -0.000000000000, -0.000000000000, -0.000000000000, -0.000000000000, 0.000000000000, 0.000000000000, 0.000000000000, 0.000000000000, -0.000000000000, -0.000000000000, 0.000000000000, 0.000000000000, 0.000000000000, 0.000000000000, -0.000000000000, 0.000000000000, -0.000000000000, -0.000000000000, 0.000000000000, 0.000000000000, 0.000000000000, 0.000000000000, -0.000000000000, 0.000000000000, 0.000000000000, 0.000000000000, -0.000000000000, 0.000000000000, 0.000000000000, -0.000000000000, 0.000000000000, -0.000000000000, -0.000000000000, 0.000000000000, -0.000000000000, 0.000000000000, -0.000000000000, -0.000000000000, 0.000000000000, -0.000000000000, 0.000000000000, -0.000000000000, -0.000000000000, -0.000000000000, 0.000000000000, -0.000000000000, 0.000000000000, -0.000000000000, 0.000000000000, -0.000000000000, -0.000000000000, -0.000000000000, -0.000000000000, 0.000000000000, -0.000000000000, -0.000000000000, 0.000000000000, -0.000000000000, 0.000000000000, 0.000000000000, -0.000000000000, 0.000000000000, -0.000000000000, 0.000000000000, -0.098053611815, -0.082342259586, 0.000000000947, -0.056632693857, -0.000000000000, -0.000000000000, -0.002960494254, -0.083264060318, -0.000000000000, -0.067284002900, -0.000000000000, 0.000000000000, -0.120403163135, -0.000000000000, -0.000000000000, 0.138140290976, -0.104677177966, -0.000000000000, 0.000000000000, 0.164269790053, -0.099854409695, 0.000000000000, -0.000000000000, -0.000000000000, -0.058077000082, -0.000000000000, 0.000000000000, -0.104369647801, -0.000000000000, 0.000000000000, 0.079165630043, 0.000000000000, -0.000000000000, 0.005392661318, -0.000670817448, 0.000000000000, -0.000000000000, -0.000000000000, 0.000000000000, -0.000000000000, -0.059300318360, 0.080599516630, -0.000000000000, -0.005425959360, 0.176980495453, -0.080141857266, -0.000000000000, 0.000000000000, -0.084540896118, -0.000000000000, -0.000000035276, 0.170818090439, 0.085220918059, -0.000000000000, -0.000000000000, -0.000000000000, 0.000000000000, 0.000000000000, -0.000000000000, -0.000000000000, 0.152466908097, -0.054163429886, -0.000000000000, -0.000000000000, 0.005626155064, -0.111571311951, -0.000322269014, -0.000000000000, -0.118803955615, -0.000000000000, -0.003371136030, 0.000061152794, 0.000000000000, -0.000000000000, -0.018371686339, -0.000000000000, -0.000000000000, -0.000000000004, -0.000000000000, 0.000000000000, 0.052323661745, -0.023919953033, 0.053450513631, -0.000000000000, -0.086635999382, 0.043109964579, -0.010088888928, -0.119403712451, 0.000000000000, -0.000000000000, -0.000000000000, -0.000000000000, -0.059701345861, -0.000000000000, 0.000000000000, -0.000000000000, 0.000000000000, 0.000000000000, -0.000000000000, -0.009613750502, -0.025026595220, -0.000000000000, -0.000000000000, -0.048321347684, -0.000000000000, -0.000000000000, -0.000000000000, -0.092572875321, -0.000000000000, 0.107676610351, -0.051392238587, 0.000000000000, 0.085134133697, -0.000000000013, 0.000000000000, -0.000000000015, 0.080838188529, 0.000000000000, 0.000000000000, 0.097003199160, -0.000000000000, -0.000000000000, -0.119372814894, -0.094251893461, -0.021064598113, -0.000000000000, 0.097743004560, -0.129174649715, -0.000000042616, 0.145308747888, 0.000000000000, -0.127326086164, -0.083740226924, 0.000000000000, -0.000000000000, 0.000000000000, -0.000000000000, 0.119353920221, -0.022952409461, 0.000000000000, -0.036175478250, -0.063902825117, 0.000000000000, -0.000000000000, -0.000000038589, 0.000000000000, -0.024703927338, -0.002464961726, -0.060805328190, 0.000000000000, 0.000000000000, 0.000000000000, 0.000000000000, -0.000000000000, 0.000000000000, 0.000000000000, 0.000000000000, -0.000000000000, -0.000000000000, -0.000000000000, -0.000000000000, -0.000000000000, 0.000000000000, 0.000000000000, 0.000000000000, -0.000000000000, 0.000000000000, -0.000000000000, 0.000000000000, 0.000000000000, 0.000000000000, -0.000000000000, 0.000000000000, -0.000000000000, -0.000000000000, -0.000000000000, -0.000000000000, -0.000000000000, 0.000000000000, -0.000000000000, 0.000000000000, -0.000000000000, -0.000000000000, -0.000000000000, -0.000000000000, 0.000000000000, -0.000000000000, 0.000000000000, -0.000000000000, 0.000000000000, 0.000000000000, 0.000000000000, -0.000000000000, -0.000000000000, 0.000000000000, 0.000000000000, 0.000000000000, -0.000000000000, -0.000000000000, 0.000000000000, -0.000000000000, -0.000000000000, 0.000000000000, -0.000000000000, -0.000000000000, 0.000000000000, 0.000000000000, 0.000000000000, -0.000000000000, -0.000000000000, 0.000000000000, -0.000000000000, -0.000000000000, -0.000000000000, 0.000000000000, 0.000000000000, -0.000000000000, 0.000000000000, -0.000000000000, -0.000000000000, 0.000000000000, -0.000000000000, 0.000000000000, 0.000000000000, -0.000000000000, -0.000000000000, 0.000000000000, -0.000000000000, 0.000000000000, -0.000000000000, -0.000000000000, 0.000000000000, -0.000000000000, -0.000000000000, 0.000000000000, -0.000000000000, 0.000000000000, 0.000000000000, 0.000000000000, -0.000000000000, -0.000000000000, 0.000000000000, -0.000000000000, -0.000000000000, -0.000000000000, 0.000000000000, -0.000000000000, 0.000000000000, -0.000000000000, 0.000000000000, -0.000000000000, 0.000000000000, -0.000000000000, 0.000000000000, -0.000000000000, -0.000000000000, -0.000000000000, -0.000000000000, -0.000000000000, -0.000000000000, 0.000000000000, -0.000000000000, -0.000000000000, -0.000000000000, -0.000000000000, -0.000000000000, -0.000000000000, -0.000000000000, 0.000000000000, -0.000000000000, -0.000000000000, 0.000000000000, -0.000000000000, 0.000000000000, 0.000000000000, 0.000000000000, -0.000000000000, 0.000000000000, 0.000000000000, 0.000000000000, -0.000000000000, 0.000000000000, 0.000000000000, 0.000000000000, -0.000000000000, -0.000000000000, -0.000000000000, 0.000000000000, 0.000000000000, -0.000000000000, -0.000000000000, 0.000000000000, -0.000000000000, 0.000000000000, -0.000000000000, 0.000000000000, -0.000000000000, 0.000000000000, 0.000000000000, 0.000000000000, -0.000000000000, -0.000000000000, 0.000000000000, -0.000000000000, 0.000000000000, -0.000000000000, 0.000000000000, -0.000000000000, -0.000000000000, -0.000000000000, -0.000000000000, 0.000000000000, -0.000000000000, 0.000000000000, 0.000000000000, 0.000000000000, -0.000000000000, -0.000000000000, -0.000000000000, 0.000000000000, -0.000000000000, 0.000000000000, -0.000000000000, 0.000000000000, 0.000000000000, -0.000000000000, -0.000000000000, -0.000000000000, 0.000000000000, 0.000000000000, -0.000000000000, 0.000000000000, 0.000000000000, 0.000000000000, -0.000000000000, -0.000000000000, -0.000000000000, 0.000000000000, 0.000000000000, 0.000000000000, -0.000000000000, -0.000000000000, 0.000000000000, 0.000000000000, -0.000000000000, -0.000000000000, 0.000000000000, -0.000000000000, -0.000000000000, -0.000000000000, 0.000000000000, -0.000000000000, 0.000000000000, 0.000000000000, -0.000000000000, -0.000000000000, -0.000000000000, -0.000000000000, 0.000000000000, 0.000000000000, -0.000000000000, -0.000000000000, -0.000000000000, 0.000000000000, -0.000000000000, -0.000000000000, -0.000000000000, 0.000000000000, -0.000000000000, -0.000000000000, -0.000000000000, 0.000000000000, 0.000000000000, -0.000000000000, -0.000000000000, 0.000000000000, -0.000000000000, -0.000000000000, 0.000000000000, 0.000000000000, 0.000000000000, -0.000000000000, 0.000000000000, 0.000000000000, -0.000000000000, 0.000000000000, -0.000000000000, -0.000000000000, 0.000000000000, 0.000000000000, -0.000000000000, -0.000000000000, -0.000000000000, -0.000000000000, -0.000000000000, 0.000000000000, 0.000000000000, -0.000000000000, -0.000000000000, -0.000000000000, -0.000000000000, -0.000000000000, -0.000000000000, -0.000000000000, -0.000000000000, 0.000000000000, -0.000000000000, -0.000000000000, 0.000000000000, 0.000000000000, -0.000000000000, -0.000000000000, 0.000000000000, 0.000000000000, 0.000000000000, 0.000000000000, 0.000000000000, 0.000000000000, -0.000000000000, -0.000000000000, -0.000000000000, 0.000000000000, -0.000000000000, -0.000000000000, -0.000000000000, 0.000000000000, 0.000000000000, -0.000000000000, -0.000000000000, 0.000000000000, -0.000000000000, -0.000000000000, -0.000000000000, 0.000000000000, 0.000000000000, -0.000000000000, -0.000000000000, -0.000000000000, -0.000000000000, -0.000000000000, -0.000000000000, -0.000000000000, 0.000000000000, 0.000000000000, 0.000000000000, -0.000000000000, -0.000000000000, -0.000000000000, -0.000000000000, -0.000000000000, 0.137099638581, 0.046280547976, -0.000000000000, 0.020702196285, -0.000000000000, -0.000000000000, -0.092775389552, 0.005474632140, 0.000000000000, -0.033064842224, -0.000000000000, -0.000000000000, 0.082461655140, -0.000000000000, 0.000000000000, 0.003973648883, 0.019329914823, 0.000000000000, 0.000000000000, -0.071097157896, 0.077257715166, -0.000000000000, -0.000000000000, -0.000000000000, -0.055740963668, 0.000000000000, -0.000000000000, 0.021205747500, -0.000000000000, -0.000000000000, 0.010836413130, -0.000000000000, -0.000000000000, -0.026725916192, 