//Numpy array shape [150, 1]
//Min -0.194403052330
//Max 0.222007110715
//Number of zeros 0

#ifndef W15_H_
#define W15_H_

#ifndef __SYNTHESIS__
model_default_t w15[150];
#else
model_default_t w15[150] = {-0.000786255172, 0.155129000545, 0.066289812326, -0.000962275197, 0.054984755814, -0.000769415812, -0.000769437640, -0.160349041224, 0.077541410923, -0.000769410632, -0.111580818892, -0.000766344485, -0.000613179756, 0.183168902993, -0.000768643338, -0.000768326106, -0.097261302173, 0.151754170656, -0.000769543403, -0.000769474776, -0.064701251686, 0.072719097137, -0.000769409933, -0.000769395439, -0.000756917580, -0.176336795092, -0.000769397768, -0.000769406033, 0.126786410809, -0.000769106671, -0.000838339503, -0.082746796310, -0.000770464656, -0.000769446371, -0.056619495153, -0.002013312187, -0.000769422390, -0.000768511265, -0.000769298291, -0.000769402250, -0.000349783950, 0.120244152844, -0.054557837546, -0.000769394974, -0.075773775578, -0.101841710508, -0.153569400311, -0.000716297072, -0.000839450338, 0.112134195864, -0.000769574603, -0.000919431797, -0.194403052330, -0.067146390676, -0.000769406208, -0.000768948696, -0.000769398699, -0.000769401551, -0.000817332650, -0.000736659684, -0.000769437989, -0.084436848760, 0.052431296557, -0.000004887086, -0.000769405102, -0.003385477234, 0.165743902326, 0.007311154623, -0.000769022154, 0.181625366211, -0.000770286424, -0.056421928108, -0.002160594333, -0.000769390783, -0.000769398757, -0.009095770307, -0.000769415812, -0.000769396895, 0.000235235828, -0.001106604002, -0.001093563042, -0.069042831659, 0.042987599969, -0.013810590841, -0.000796771143, 0.116001717746, -0.134302705526, 0.003543064231, 0.208037644625, -0.000769375940, -0.000768816564, -0.000769611448, -0.000769329257, -0.126577436924, -0.000771649065, -0.000769384555, -0.000769455452, -0.000777855050, -0.000779371709, -0.000768527389, 0.023079918697, 0.022715579718, -0.000823690789, -0.000792477455, 0.041561141610, -0.000769439270, -0.000769406324, -0.000769491598, 0.140562653542, -0.000769404112, -0.130091533065, 0.050163477659, -0.000769445149, -0.111420057714, 0.000006689545, -0.000769403414, -0.000891834847, -0.123947642744, -0.000769401959, -0.000773620093, -0.073234878480, -0.000769387058, -0.000769124541, 0.150461420417, 0.144816204906, 0.016846708953, -0.000768031343, -0.063441224396, 0.144501954317, 0.007733435836, -0.103637099266, -0.000692426460, 0.222007110715, 0.097273983061, -0.000750793726, -0.000456756359, -0.000768804923, -0.000769344741, -0.140555158257, 0.012488482520, -0.000769403996, -0.042288169265, 0.063020527363, -0.000769400154, -0.000724998536, -0.000942907704, -0.000742625445, -0.007069056388, 0.009762519971, 0.043311968446};
#endif

#endif
