//Numpy array shape [30, 50]
//Min -0.987588346004
//Max 0.996358394623
//Number of zeros 0

#ifndef W3_H_
#define W3_H_

#ifndef __SYNTHESIS__
model_default_t w3[1500];
#else
model_default_t w3[1500] = {-0.032751780003, -0.554400324821, -0.814293265343, 0.035684727132, -0.017234021798, 0.277108877897, -0.355318367481, 0.206112697721, 0.255457878113, -0.303233325481, -0.295149505138, -0.313354909420, -0.003892990993, -0.288379311562, 0.363035321236, 0.546674728394, 0.996358394623, 0.186362504959, 0.450851708651, 0.031763676554, 0.176849558949, 0.084402158856, -0.644844889641, -0.006102719810, -0.634646773338, -0.006437632255, 0.054024312645, -0.306315571070, -0.140559270978, -0.185345619917, 0.173073902726, -0.012832658365, -0.817486405373, 0.372441947460, -0.175637468696, 0.091141201556, 0.979804337025, 0.063991300762, 0.181956917048, -0.079386778176, -0.180503442883, 0.404614120722, -0.987588346004, 0.348465949297, -0.177206888795, -0.049203973264, -0.078541383147, -0.185177654028, -0.496657848358, 0.002159783151, 0.012857294641, -0.507499992847, -0.092358663678, -0.083595156670, -0.735468029976, 0.113144606352, -0.044888976961, -0.188832074404, 0.142139986157, -0.046244505793, -0.010168267414, 0.366209894419, 0.475326180458, 0.024586491287, 0.067156493664, 0.176392272115, -0.237322062254, 0.355843245983, 0.069567345083, 0.027602544054, 0.045828931034, -0.136413276196, -0.055476453155, 0.342531621456, -0.045672405511, -0.078665398061, 0.096726343036, 0.103805594146, -0.053534749895, 0.090468056500, -0.206319391727, -0.076762653887, -0.087218098342, 0.069849222898, -0.040077850223, -0.255832821131, -0.341899722815, 0.087024562061, 0.049125477672, 0.189845025539, -0.102307267487, -0.153238162398, -0.082094594836, 0.170557379723, -0.576325714588, 0.182081237435, -0.331052899361, 0.128902420402, -0.290938645601, 0.141403809190, 0.242988660932, -0.074219658971, -0.123912476003, -0.164138197899, -0.068618409336, 0.318129450083, 0.138551563025, -0.222560018301, -0.331803143024, -0.011361031793, -0.140013054013, 0.076310768723, -0.149626865983, -0.032968234271, 0.269995003939, 0.090705998242, 0.429247766733, 0.247630029917, 0.157188743353, 0.183515280485, 0.142480015755, -0.102687641978, -0.150060772896, 0.095617093146, -0.071758233011, -0.072379544377, 0.063840456307, 0.238956049085, -0.076637506485, 0.015864428133, -0.038881339133, -0.366315752268, 0.177433893085, 0.230450838804, 0.175871580839, 0.518413305283, 0.359125554562, 0.293928235769, 0.049225326627, -0.181937858462, 0.099074840546, 0.246358394623, -0.164232641459, 0.102835483849, 0.031700074673, 0.389704883099, -0.222350716591, -0.053052347153, -0.120861336589, -0.417799979448, -0.211662441492, -0.099619448185, -0.006871705875, 0.010629430413, -0.405572026968, 0.069506242871, -0.346901595592, 0.227569818497, 0.158092036843, 0.033292364329, 0.351409405470, -0.088159017265, -0.028705954552, 0.335627675056, 0.088963642716, 0.159274056554, 0.347002238035, 0.034603986889, 0.160040184855, -0.090784370899, 0.168143525720, 0.063702940941, 0.018800454214, 0.310525476933, 0.073406279087, 0.111287698150, -0.169866144657, -0.099590584636, 0.049146018922, -0.299411088228, 0.265084177256, -0.089155972004, -0.179104179144, 0.106800913811, -0.254222631454, -0.209348067641, 0.100300922990, 0.119357146323, -0.093626201153, 0.166551738977, -0.088031552732, 0.135810166597, -0.166789934039, 0.089362554252, 0.247037217021, 0.165393024683, 0.016586856917, -0.099948637187, -0.283506512642, -0.362435102463, 0.332682907581, 0.035308666527, 0.173340618610, 0.163907602429, -0.034617278725, -0.000255628402, -0.307121902704, -0.356553882360, -0.036667998880, -0.015896152705, -0.082246020436, -0.177819117904, 0.067379474640, 0.078812271357, 0.212231710553, -0.186860620975, 0.040893476456, -0.063607670367, 0.264253169298, 0.001089109224, 0.099633365870, -0.104948110878, -0.145356282592, 0.104270957410, 0.273332595825, -0.183071255684, 0.118153341115, -0.027163922787, 0.017489995807, -0.171052902937, 0.041878841817, -0.157315745950, -0.018828822300, -0.324921339750, 0.155407518148, 0.041312091053, 0.036061834544, -0.346889585257, 0.712777197361, 0.061337333173, 0.124373763800, -0.068996526301, -0.010281513445, -0.292783319950, 0.103095293045, -0.232921376824, 0.088792949915, 0.192633688450, -0.064605884254, 0.318668663502, -0.021164858714, 0.073804691434, 0.094531662762, 0.248975872993, 0.075113028288, 0.266904473305, -0.065241940320, -0.213293224573, 0.105155371130, 0.024321284145, 0.026254141703, 0.034513995051, 0.152552247047, 0.288074851036, 0.401513874531, -0.192862659693, 0.028686709702, 0.007990842685, -0.039016269147, 0.139135003090, 0.179063558578, 0.084776610136, -0.060657914728, -0.187241747975, -0.179089665413, -0.103504985571, 0.253189504147, 0.187085255980, -0.014938969165, -0.084766916931, -0.165355741978, -0.230979621410, -0.114746011794, -0.346460759640, -0.265976667404, 0.038840156049, 0.015893127769, -0.037086442113, 0.106559947133, -0.031512793154, 0.011910962872, -0.344661891460, -0.071733020246, -0.068695791066, 0.181621000171, -0.169158518314, 0.007056241389, -0.181363090873, -0.004776795860, 0.078203231096, -0.363061219454, 0.181400537491, 0.152930140495, -0.032451063395, 0.060682117939, -0.164010435343, 0.306852310896, 0.154955089092, 0.080654218793, 0.088342659175, 0.058491058648, -0.031642496586, -0.010961693712, -0.005906197242, 0.107582964003, 0.269479542971, -0.000285257847, 0.060603354126, -0.023447714746, 0.050892066211, 0.007006506901, -0.029144184664, 0.180320620537, -0.015175588429, -0.101169452071, 0.389513790607, 0.117475688457, 0.030818669125, -0.068542242050, 0.124257408082, 0.070174686611, 0.171097829938, 0.049667745829, 0.131595581770, 0.000129509353, 0.150343894958, 0.121951982379, -0.011394370347, -0.110495127738, 0.080177851021, 0.065640881658, 0.204593345523, -0.142686828971, 0.022405793890, 0.071333363652, -0.219075366855, 0.086437977850, 0.018530292436, -0.059820447117, 0.351450979710, 0.176917016506, 0.071601495147, -0.312369108200, 0.018536424264, 0.180874496698, 0.340831249952, -0.182445913553, -0.173961624503, 0.263904392719, -0.605186104774, -0.509970426559, -0.400376856327, -0.045088898391, -0.147879347205, 0.043763134629, 0.022050678730, -0.043085440993, 0.370701402426, 0.174084514380, -0.231731325388, 0.168390184641, -0.060970723629, -0.348853975534, -0.016516335309, -0.354846954346, -0.179493054748, 0.032831676304, 0.080711707473, 0.036990385503, -0.170412987471, -0.186088517308, 0.196380034089, -0.603500902653, -0.086725443602, -0.373052895069, 0.291136115789, -0.193779677153, 0.352406501770, -0.353920400143, 0.299990713596, -0.180826827884, -0.043013926595, -0.705596685410, 0.102677568793, -0.028025269508, 0.173918724060, 0.177892088890, 0.056016966701, -0.063486814499, 0.490642905235, 0.091024816036, -0.072924934328, 0.359151452780, 0.305961936712, -0.343403935432, -0.119852274656, 0.066146403551, 0.068250469863, -0.687057197094, -0.194956600666, -0.167053014040, -0.368885248899, 0.123962216079, -0.299309492111, -0.066923007369, 0.013135392219, -0.133289948106, -0.071802459657, -0.057529974729, -0.340256571770, -0.286267191172, -0.150308668613, -0.189937010407, -0.343557745218, -0.046740278602, 0.106003604829, 0.089106991887, -0.013720830902, -0.353931605816, -0.058867990971, -0.022491957992, 0.203402101994, -0.126878574491, -0.009771306999, -0.099506057799, 0.351627975702, 0.006785424426, -0.063905514777, -0.178997620940, 0.093303710222, -0.056431587785, 0.103295035660, 0.252584874630, -0.011801575311, -0.179891020060, -0.074552766979, -0.157647460699, 0.607567906380, -0.223706424236, 0.368353366852, 0.236374408007, 0.289709150791, -0.174189686775, 0.105897486210, 0.031476475298, 0.150227084756, -0.126821115613, 0.186195299029, 0.065562821925, 0.077759698033, 0.075131967664, 0.044310290366, -0.002858785912, 0.027448421344, -0.097220554948, 0.159261628985, -0.097856156528, 0.169720351696, 0.230381324887, 0.006412245799, 0.094681687653, -0.181917801499, -0.017423791811, -0.273447692394, -0.178684532642, -0.053878162056, 0.017495088279, -0.043477017432, -0.096078328788, 0.033876549453, -0.023271704093, -0.212338998914, -0.111687190831, -0.008401485160, -0.286448836327, 0.172074973583, 0.022776110098, -0.033687993884, -0.162917897105, -0.200576558709, 0.140978559852, 0.104513101280, 0.212097570300, -0.098041027784, -0.174194380641, 0.133651018143, 0.043391749263, -0.232524111867, 0.249292537570, -0.120757281780, -0.023790644482, -0.249558210373, 0.000291899458, 0.175415515900, 0.186409264803, 0.153738528490, 0.086441420019, -0.361536115408, 0.005586044397, 0.149209886789, -0.072847224772, -0.011591971852, -0.276054263115, 0.005495718215, -0.057021886110, 0.069495156407, -0.085804045200, 0.057966839522, 0.122803375125, -0.074501290917, -0.022396452725, -0.302153944969, 0.035020388663, 0.027457609773, -0.019091464579, -0.027924152091, -0.030595973134, 0.167903274298, -0.170594006777, 0.036429438740, -0.154307112098, -0.185546100140, -0.090491116047, 0.040868811309, 0.177781447768, -0.177627965808, -0.201526761055, -0.098674185574, -0.169504523277, 0.239729359746, 0.040359053761, -0.020064366981, -0.192931130528, 0.218938246369, 0.131122216582, 0.087499268353, 0.111078843474, 0.203177034855, -0.063239373267, -0.202769264579, 0.010488308035, 0.073750101030, -0.218127146363, -0.309813588858, -0.169927120209, 0.014594450593, -0.092595413327, -0.172962918878, 0.427730858326, -0.334660828114, 0.661701321602, -0.351301938295, 0.058908760548, 0.162482038140, -0.029485080391, -0.178193464875, 0.061869710684, -0.059570919722, 0.093484140933, 0.173929870129, -0.032849002630, -0.169660955667, -0.196490943432, 0.025225887075, -0.073022663593, 0.181572824717, -0.099012292922, -0.172691047192, -0.169389456511, -0.055156160146, -0.011161629111, -0.018991861492, -0.354668676853, 0.254434198141, -0.153901129961, -0.718969702721, -0.231252744794, -0.049117665738, 0.135651394725, 0.028350435197, 0.052335090935, -0.352511525154, -0.382752686739, -0.017370291054, -0.065500631928, 0.031856205314, -0.134769886732, -0.197285532951, -0.087947010994, 0.003957929555, -0.790400922298, -0.353821307421, 0.064179971814, 0.308481305838, -0.032734908164, 0.071153402328, 0.303856521845, -0.189503639936, 0.178160429001, -0.092796929181, 0.098058596253, 0.102129787207, -0.016693754122, 0.047763384879, 0.317835927010, -0.218221098185, -0.011571078561, -0.067633800209, 0.230856344104, -0.084796085954, 0.169775053859, 0.038216404617, 0.354228645563, -0.086279295385, -0.194983392954, -0.080249242485, 0.265008836985, -0.244051650167, -0.307484149933, 0.052057076246, 0.043400179595, -0.186953008175, -0.113292545080, -0.084062106907, -0.031189510599, 0.167296275496, -0.050269398838, 0.280639261007, 0.350607246161, -0.044417750090, -0.053489223123, -0.183844491839, 0.101596288383, -0.272069811821, 0.054383430630, 0.052412286401, 0.101851738989, -0.111535139382, -0.098758205771, -0.003602697281, 0.032036401331, 0.128084585071, 0.128047287464, 0.028316587210, -0.121685609221, 0.156773418188, -0.056169643998, 0.447937995195, -0.158596426249, 0.105012856424, 0.146283984184, -0.058090679348, 0.262889325619, 0.036634359509, -0.034344680607, 0.092661827803, 0.001912575448, 0.012127422728, -0.057159267366, -0.059140484780, -0.013902545907, 0.103248946369, -0.094599381089, -0.745397686958, 0.211359962821, -0.137267738581, 0.175167143345, -0.129741370678, 0.169786512852, 0.036362931132, -0.034858472645, -0.049823332578, -0.045342806727, -0.182786971331, -0.403933674097, 0.357549309731, 0.180415987968, 0.018516119570, -0.097210951149, -0.691390216351, 0.013939155266, 0.070389583707, 0.018722746521, -0.024329250678, -0.097716242075, 0.038264922798, -0.176632419229, -0.239699125290, 0.047058824450, 0.044357821345, -0.158590853214, 0.046214185655, -0.070376351476, -0.100019872189, 0.106921859086, -0.143927931786, -0.570857882500, 0.129546105862, 0.151753693819, -0.038576927036, -0.040779143572, -0.010523081757, -0.032047562301, 0.010082335211, -0.012473970652, 0.368086606264, -0.077675499022, 0.129702195525, 0.366450637579, -0.022443547845, 0.279030859470, 0.075029566884, 0.100920669734, -0.166781812906, 0.105880975723, 0.005776525009, 0.005504014436, 0.520108878613, -0.137236714363, 0.665653288364, 0.080134600401, -0.169745281339, -0.173101156950, 0.164334014058, 0.355715095997, 0.018656106666, -0.153826236725, 0.022423118353, -0.089306317270, 0.086899228394, 0.392948597670, -0.120367310941, 0.068014509976, -0.009672510438, 0.005638426170, -0.364660680294, 0.002188378479, -0.065750174224, -0.163363799453, 0.056488327682, 0.099634155631, -0.019197804853, -0.160343140364, 0.174128830433, 0.080660529435, -0.102522253990, -0.111297786236, 0.109580852091, -0.009744780138, -0.032205171883, 0.199594706297, 0.073684059083, -0.093879587948, 0.191649973392, 0.089914895594, -0.040300808847, 0.052249755710, 0.019051207229, 0.219259291887, -0.057689066976, -0.012151202187, -0.147242486477, -0.089337073267, -0.055928029120, -0.005366218276, -0.146620899439, -0.114347584546, 0.064927257597, -0.173254996538, 0.163005381823, 0.032865408808, 0.181966260076, 0.089705288410, -0.203276857734, 0.018676027656, 0.000544803101, 0.133485406637, 0.050336264074, 0.053301569074, 0.029095325619, 0.068244338036, -0.050305683166, 0.019705735147, 0.017025122419, 0.103270798922, -0.044026937336, 0.023787679151, -0.003960731439, -0.074623726308, -0.067191056907, -0.068238779902, 0.138460770249, 0.174244478345, -0.098755232990, 0.176189884543, 0.104711763561, -0.070555061102, -0.083314821124, 0.085428982973, 0.087881684303, -0.068508364260, -0.201564371586, -0.041409257799, 0.179986476898, 0.085888989270, 0.137285724282, -0.022633917630, -0.047733604908, -0.031632691622, -0.157451644540, 0.075961746275, -0.182809039950, 0.033108543605, -0.514674901962, 0.084638208151, 0.042213197798, 0.017296923324, -0.319061815739, -0.390789270401, 0.022569734603, -0.056501053274, -0.139785796404, -0.039109554142, 0.175849661231, -0.388650625944, -0.070709906518, 0.015800729394, 0.051301293075, 0.020971894264, -0.322968512774, 0.046728745103, -0.031876053661, 0.171635791659, -0.046186462045, 0.094287835062, -0.175891518593, 0.066071361303, -0.139237090945, -0.039244111627, -0.158944934607, -0.033462200314, 0.028631219640, 0.020391115919, -0.101430095732, -0.049631904811, 0.058318410069, -0.361896038055, 0.011382751167, -0.170861586928, -0.265682011843, 0.100502774119, -0.025634573773, 0.042735155672, 0.035525072366, 0.000956155360, -0.355848133564, 0.164820536971, 0.102995939553, -0.363213479519, -0.043756373227, -0.295922636986, 0.056947056204, 0.189740911126, 0.292329251766, 0.041294049472, -0.052711017430, -0.039854675531, -0.166594311595, -0.079488702118, 0.446531772614, 0.067469105124, 0.070339113474, -0.168895214796, -0.011450351216, -0.153165593743, 0.078846588731, 0.056106802076, 0.091601975262, 0.019387196749, -0.342989325523, 0.568170070648, 0.061965048313, -0.081714540720, -0.051103912294, -0.126669228077, 0.435541510582, -0.014058176428, -0.014646738768, 0.060926981270, 0.190067246556, 0.162775471807, -0.012350558303, 0.148554593325, -0.081020012498, 0.179152369499, 0.184416204691, 0.076791711152, 0.026893541217, 0.037636604160, -0.121341839433, -0.076725251973, -0.035454213619, -0.083555378020, -0.089578680694, 0.102388456464, -0.009313394316, -0.058881558478, 0.078465834260, -0.152516037226, -0.051026351750, -0.030617494136, 0.028801120818, -0.077020399272, 0.060480725020, -0.013899262995, -0.134081140161, 0.148770138621, -0.057175084949, 0.017276940867, 0.064078725874, -0.034501139075, -0.086363054812, -0.134486079216, -0.065899297595, 0.079000927508, -0.008034711704, 0.043494116515, -0.263367980719, -0.165443167090, -0.128297820687, 0.012418605387, 0.043048024178, -0.054211117327, -0.129530638456, 0.189990311861, -0.156412035227, -0.007020954974, -0.039729803801, -0.217020660639, -0.172805860639, 0.250671595335, -0.178186506033, -0.009707790799, 0.032450195402, -0.348756641150, 0.114825017750, -0.083835802972, 0.186036273837, 0.164642482996, -0.056748133153, -0.037422414869, -0.051731407642, -0.383202791214, -0.132851406932, 0.107872724533, 0.033374778926, -0.000880925742, 0.494128644466, 0.034036107361, -0.125499129295, 0.039991635829, -0.275548666716, -0.125778198242, 0.186107143760, 0.070828258991, 0.346743196249, -0.077664010227, 0.219169870019, -0.233061060309, -0.046323321760, 0.106894388795, -0.020480668172, 0.036432001740, 0.042982555926, -0.109612263739, -0.052693042904, -0.024779416621, 0.178392052650, -0.185425966978, 0.007489116862, -0.022583130747, -0.034236647189, -0.185259118676, 0.308015763760, 0.177234306931, 0.351697444916, 0.261718541384, 0.019028577954, -0.388833463192, -0.234662294388, -0.082875818014, -0.061367634684, -0.014045854099, -0.001613474684, 0.160576328635, -0.009892131202, 0.085436239839, 0.030520748347, -0.003280070378, 0.045862395316, 0.030544042587, -0.003594335401, -0.124285377562, -0.063539095223, -0.146642997861, -0.043914314359, 0.051504235715, 0.063178084791, -0.163438886404, 0.014007070102, -0.095115445554, -0.021817676723, 0.033241331577, -0.005753220525, -0.011356800795, -0.364560335875, 0.013190693222, -0.001989896176, -0.028466701508, -0.114021219313, 0.032100822777, 0.128020271659, 0.050865288824, 0.093419149518, -0.081142060459, 0.028897428885, -0.147197693586, -0.071444317698, -0.117871761322, -0.141154319048, -0.210491865873, 0.118985570967, 0.032755184919, -0.025855138898, 0.178440958261, 0.102457240224, -0.011850789189, -0.171237990260, -0.094080984592, -0.114244915545, 0.176001846790, 0.144544690847, -0.302105605602, -0.069243296981, -0.030972920358, 0.106837131083, 0.295826166868, 0.026253022254, -0.049869455397, 0.189113900065, -0.192519083619, -0.093767292798, -0.195669427514, -0.111912868917, -0.104202881455, 0.001241793507, 0.106995806098, 0.135582789779, 0.103440627456, -0.061653491110, -0.075176708400, -0.056084059179, 0.210359454155, 0.078108683228, 0.176814079285, 0.140056297183, -0.360570400953, 0.169813930988, 0.087122388184, 0.109614834189, 0.108391590416, 0.005244411994, 0.195093661547, 0.170263469219, 0.052138835192, -0.183544546366, -0.218652114272, 0.119904682040, -0.238168209791, 0.162205681205, -0.217062965035, -0.184528067708, -0.374512821436, -0.076975837350, 0.081634081900, 0.111506640911, 0.028753930703, -0.121275857091, 0.128197908401, 0.033357597888, 0.174438863993, 0.133177757263, -0.273735016584, -0.307134717703, -0.042561624199, -0.085956305265, 0.050403133035, 0.023668838665, -0.366740971804, 0.042982958257, 0.066070787609, 0.195073142648, -0.221434220672, 0.063734799623, 0.018817001954, -0.012420578860, 0.078792102635, -0.089903794229, 0.056541960686, 0.000865508569, -0.024421880022, 0.019101040438, 0.174426436424, 0.082723289728, 0.013194449246, -0.022297622636, -0.407037615776, 0.303023874760, -0.207799285650, 0.102285735309, -0.147620245814, -0.103689588606, -0.179054170847, 0.013362671249, 0.019168652594, -0.377906739712, -0.038408808410, 0.192701116204, -0.106620177627, 0.035328526050, 0.021968705580, -0.053957890719, -0.225009635091, 0.092830911279, 0.063113048673, -0.026010340080, 0.049835290760, -0.354973047972, 0.358914405107, -0.180962011218, 0.178477108479, 0.081840626895, 0.171143218875, -0.074744515121, -0.090184457600, -0.155422136188, 0.196544364095, -0.070323817432, -0.210694223642, -0.070646747947, -0.167712837458, 0.047836177051, 0.185951322317, -0.030738323927, 0.197102084756, -0.203872680664, -0.012579774484, 0.183462753892, -0.085400328040, 0.000107930318, 0.023829985410, -0.041170779616, 0.044461127371, 0.017159244046, -0.329849332571, 0.109723962843, 0.215340673923, 0.016397884116, -0.000844368420, 0.159257173538, -0.058462787420, -0.176598578691, -0.064571939409, -0.253080576658, -0.220481708646, 0.200840055943, 0.060699380934, -0.004085344262, 0.169463574886, 0.121334597468, 0.150623396039, 0.153448998928, 0.095107205212, -0.197632670403, -0.019007146358, -0.018538916484, -0.177607148886, -0.061415717006, 0.308061450720, -0.035463113338, 0.083671845496, 0.050124827772, -0.015793606639, 0.098176494241, 0.001259924378, -0.051581773907, 0.490302413702, 0.147710964084, 0.162575602531, 0.102281466126, 0.119925700128, 0.089094594121, 0.021893564612, -0.103895820677, 0.019929900765, -0.239337027073, 0.043368291110, -0.018879279494, 0.240114644170, 0.026831213385, 0.006677750498, -0.002549053403, -0.014461720362, -0.017236791551, -0.091410353780, -0.087322883308, -0.186132088304, -0.344487041235, -0.059041716158, -0.444484651089, -0.070534303784, 0.013992170803, 0.154637470841, -0.085183404386, -0.186063617468, -0.215541556478, 0.063368640840, 0.043414182961, -0.042500868440, 0.064229764044, 0.037422116846, 0.047515969723, 0.009998874739, 0.114721722901, 0.032825589180, 0.086433827877, 0.139496669173, -0.091649599373, 0.012686272152, 0.138120904565, -0.010685162619, -0.068059258163, 0.078239083290, 0.099804863334, -0.101188935339, -0.132399499416, -0.041246090084, 0.107979372144, 0.213174834847, 0.146671935916, -0.070577628911, 0.050685394555, -0.019113969058, 0.048428591341, 0.005494880956, 0.150191605091, 0.096969850361, -0.080032847822, 0.113774828613, 0.079607352614, -0.058175195009, -0.062593676150, 0.225627332926, 0.108874723315, -0.002502389951, -0.031410921365, -0.187188550830, 0.041757136583, 0.182876929641, -0.041053749621, -0.042603306472, -0.044798675925, 0.169665366411, -0.127118334174, 0.015667999163, -0.175488173962, 0.087585128844, 0.137739330530, -0.034198164940, 0.047129068524, -0.049313232303, -0.054418254644, -0.066510975361, 0.016960445791, 0.297356098890, 0.055976670235, 0.146690770984, -0.002442418132, 0.165471673012, -0.082344301045, 0.099480345845, 0.025438226759, -0.046149160713, -0.156213566661, -0.082796789706, -0.084528699517, -0.134220242500, -0.262551218271, 0.236056536436, 0.044863048941, 0.172712713480, 0.166133612394, 0.099627487361, 0.189302623272, 0.297095566988, 0.024875173345, -0.015399014577, 0.147482246161, -0.049009770155, 0.089481249452, 0.023689523339, 0.144504651427, 0.084239773452, 0.090375445783, -0.285204976797, -0.072375319898, 0.202068239450, 0.034662965685, 0.216078951955, -0.007323922124, 0.270714700222, -0.365289479494, -0.035813122988, 0.092396356165, -0.259636878967, -0.186288103461, -0.029730485752, -0.228037253022, -0.023446436971, 0.057837706059, 0.123396173120, -0.099499329925, 0.015135642141, -0.083480440080, -0.042090948671, -0.197405323386, 0.134331092238, 0.009520777501, 0.173731088638, -0.094401583076, 0.018520357087, -0.099713385105, -0.049549654126, -0.190403968096, -0.169451832771, -0.071390561759, 0.615232229233, 0.008213602938, -0.091003395617, 0.060911573470, -0.080737754703, 0.019572736695, 0.063194140792, -0.029784731567, 0.069529473782, -0.144850745797, 0.011347530410, 0.057333245873, 0.340955257416, -0.065349303186, -0.019668431953, 0.147687837481, -0.174404144287, -0.011705088429, 0.026006208733, 0.156738847494, -0.036296196282, -0.261633723974, 0.051465924829, -0.702566623688, 0.054571345448, 0.086269624531, 0.054307103157, 0.084495276213, -0.175308600068, -0.061107333750, 0.014375817031, 0.075093142688, 0.143603548408, 0.178469032049, 0.094665102661, -0.097537927330, -0.037493247539, 0.085070088506, -0.041012324393, 0.065606571734, -0.103282883763, -0.108693957329, 0.112739138305, 0.102061294019, 0.011860897765, 0.007942243479, 0.102835051715, -0.056723419577, 0.189252808690, -0.068352669477, 0.027892379090, -0.078073553741, 0.078153237700, 0.062372788787, -0.017582919449, 0.094595000148, -0.070491656661, -0.157936707139, -0.012085620314, -0.027124838904, 0.021417479962, -0.123365163803, 0.005505802575, -0.029716003686, 0.120155669749, -0.098945692182, 0.126366943121, 0.097187742591, 0.042092747986, -0.080286674201, 0.097212128341, -0.069566011429, -0.173505425453, 0.176850304008, 0.127673879266, -0.012772019953, -0.001812180039, -0.053185027093, -0.130956381559, -0.059276472777, -0.006605165545, -0.051293130964, -0.030825177208, -0.030907183886, 0.054135501385, -0.058833483607, 0.040426678956, 0.345858722925, -0.049748100340, -0.021399157122, -0.040234591812, -0.018007250503, -0.330462574959, -0.360787451267, 0.076210089028, -0.012298995629, 0.005442205351, 0.047956090420, 0.050075605512, 0.017913319170, 0.030009670183, -0.042685665190, -0.176878899336, -0.034468147904, 0.048646740615, 0.112984277308, 0.084594562650, -0.105014659464, 0.105562113225, 0.124701030552, 0.005691997707, -0.031623087823, 0.092408083379, -0.014369429089, 0.010141461156, -0.087799534202, -0.001458738348, 0.150569379330, -0.113489143550, 0.097596600652, 0.081072479486, 0.032298684120, -0.002756056376, 0.039436839521, 0.107897035778, -0.113979458809, 0.047446344048, 0.049539729953, -0.055775981396, -0.057907648385, -0.025310249999, 0.077881909907, -0.072713866830, 0.112297065556, -0.081365533173, 0.019736522809, 0.073889337480, -0.053749617189, -0.038224369287, 0.010927395895, 0.017123032361, -0.097118347883, 0.139876842499, -0.062627375126};
#endif

#endif
