//Numpy array shape [50, 50]
//Min -0.376149326563
//Max 0.371900588274
//Number of zeros 0

#ifndef W9_H_
#define W9_H_

#ifndef __SYNTHESIS__
model_default_t w9[2500];
#else
model_default_t w9[2500] = {-0.099371366203, -0.000000000000, 0.000000000000, 0.000000000000, -0.000003125892, 0.163561880589, -0.000000000000, 0.049961827695, -0.000767954043, -0.000000000000, 0.000000000000, -0.000000000000, 0.000000000000, -0.001267155167, -0.000000000000, -0.000000000000, 0.010019931942, -0.117136709392, -0.041251752526, -0.001555608818, -0.008683850989, -0.003035959788, -0.000000000000, 0.208608746529, -0.000000000000, 0.007967132144, 0.173093646765, 0.019223308191, 0.000000000000, -0.106383495033, -0.030308794230, -0.048650939018, -0.000000000000, -0.077787324786, 0.187613591552, -0.000000000000, -0.000000000000, -0.048990663141, -0.000000000000, -0.000000000000, -0.183108225465, -0.000000000000, -0.000000000000, 0.000000000000, -0.049061767757, -0.073732100427, -0.000000000000, 0.023939918727, 0.132473364472, -0.005373667926, 0.001416135463, 0.000000000000, -0.000000000000, -0.000000000000, -0.000000000000, -0.005617256276, 0.000000000000, -0.000857403036, -0.000000000000, -0.000000000000, -0.000000000000, 0.000000000000, 0.000000000000, -0.000000000000, 0.000000000000, 0.000000000000, -0.000000000000, 0.000662218372, -0.000300436106, 0.000424053549, -0.004359264858, -0.000212243322, 0.000000000000, -0.006143067498, 0.000000000000, -0.016948005185, -0.004273191094, 0.003484160872, 0.000000000000, 0.002339740749, -0.004258603323, 0.006980552338, 0.000000000000, 0.003158715321, -0.004204961471, -0.000000000000, -0.000000000000, 0.000438143208, 0.000000000000, -0.000000000000, -0.000358228717, -0.000000000000, -0.000000000000, -0.000000000000, 0.000099340708, 0.003235076787, -0.000000000000, -0.003690115176, -0.002407188993, -0.000470935571, 0.137420386076, -0.000000000000, -0.000000000000, -0.000000000000, -0.000636195065, -0.121167629957, -0.000000000000, -0.033836979419, -0.000000253906, 0.000000000000, -0.000000000001, -0.000000000000, -0.000000000000, -0.000000000000, 0.000000000000, 0.000000000000, -0.000566694187, 0.172130972147, 0.045442290604, -0.000626763678, -0.105174161494, -0.001685623778, 0.000000000000, -0.131740465760, -0.000000000000, 0.003610233776, -0.016089523211, 0.177209943533, 0.000000000000, 0.084359854460, -0.052173037082, 0.041719753295, 0.000000000000, 0.020213035867, -0.023136919364, 0.000000000000, -0.000000000000, 0.000143437952, 0.000000000000, 0.000000000000, 0.183015078306, -0.000000000000, -0.000000000000, -0.000000000000, 0.075286142528, 0.066985547543, 0.000000000000, -0.162281364202, -0.092351011932, 0.066053070128, 0.073303401470, -0.000000000000, 0.000000000000, -0.000000000000, -0.000176493311, -0.048047866672, -0.000000000000, -0.060925953090, -0.000679232005, -0.000000000000, -0.000018436072, -0.000000000000, -0.000000000000, -0.000000612014, -0.000000000000, -0.000000000000, -0.000342575921, 0.104222498834, 0.174309492111, -0.003442933317, -0.176631540060, 0.018555901945, 0.000000000000, -0.182280689478, 0.000000000000, 0.040932402015, -0.181239441037, -0.069823212922, -0.000000000000, -0.046804271638, -0.090298578143, 0.069566741586, 0.000000000000, -0.037068501115, 0.133434757590, -0.000000000000, 0.000000000000, 0.010014288127, -0.000000000000, -0.000000000000, 0.179210066795, -0.000000000000, -0.000000000000, 0.000000000000, 0.027273841202, 0.117272585630, -0.000000000000, -0.088115781546, -0.201249063015, 0.013483206742, -0.030312400311, -0.000000000000, -0.000000000000, -0.000000000000, 0.000000000000, 0.113312736154, -0.000000000000, -0.024605911225, 0.000634950004, -0.000000000000, -0.000000000000, 0.000000000000, -0.000000000000, 0.000000000000, -0.000000000000, -0.000000000000, -0.000000000000, -0.089706182480, -0.213115572929, -0.001979473745, 0.146765559912, -0.007281562779, 0.000000000000, 0.260320514441, -0.000000000000, 0.052390761673, -0.025340642780, -0.166988193989, -0.000000000000, -0.176464959979, 0.078499086201, -0.056020736694, -0.000000000000, -0.088346205652, 0.273869901896, 0.000000000000, -0.000000000000, -0.050940368325, -0.000000000000, -0.000000000000, -0.237679034472, 0.000000000000, 0.000000000000, 0.000000000000, -0.056608222425, -0.038096949458, -0.000000000000, 0.218170195818, 0.174527078867, -0.048988629133, 0.050211805850, -0.000000000000, -0.000000000000, -0.000000000000, 0.000003525301, -0.122063472867, -0.000000000000, 0.013935632072, 0.000000000015, -0.000000000000, -0.000000000000, 0.000000000000, 0.000000000000, -0.000000000002, -0.000000000000, 0.000000000000, -0.000000234041, 0.109360955656, 0.105488687754, -0.016791375354, -0.015557010658, 0.025780005381, -0.000000000000, -0.119422107935, -0.000000000000, -0.019758287817, -0.051354460418, -0.009472301230, -0.000000000000, 0.150230571628, 0.008879597299, 0.092884667218, -0.000000000000, 0.176515653729, -0.140449389815, -0.000000000000, -0.000000000000, -0.013099793345, 0.000000000000, 0.000000000000, 0.056830067188, -0.000000000000, 0.000000000000, 0.000000000000, -0.007306271698, 0.050873931497, -0.000000000000, -0.143881484866, -0.066140063107, -0.027209678665, -0.062546052039, 0.000000000000, 0.000000000000, -0.000000000000, -0.000000000000, 0.107454046607, -0.000000000000, 0.123204730451, -0.000000002751, -0.000000000000, -0.000000000000, -0.000000000000, -0.000000000000, 0.000000000000, 0.000000000000, -0.000000000000, -0.000000373378, -0.053207159042, -0.074961364269, -0.002080743900, -0.036589469761, -0.016421943903, -0.000000000000, 0.227363169193, 0.000000000000, 0.006388437934, 0.228353336453, -0.084000401199, -0.000000000000, -0.072032697499, -0.035733334720, -0.043356645852, 0.000000000000, -0.033817104995, 0.042841766030, 0.000000000000, -0.000000000000, 0.128480836749, -0.000000000000, 0.000000000000, -0.047061741352, -0.000000000000, -0.000000000000, 0.000000000000, -0.034419517964, -0.024959564209, 0.000000000000, 0.132743120193, 0.037571661174, 0.005727268755, 0.096961699426, -0.000000000000, -0.000000000000, -0.000000000000, 0.004459471907, -0.075049735606, -0.000000000000, 0.111099973321, 0.000000619202, -0.000000000000, -0.000000000029, -0.000000000000, 0.000000000000, 0.000000589522, 0.000000000000, -0.000000000000, -0.000553858757, 0.169766768813, 0.152643784881, -0.004720112309, -0.029382443056, -0.000779754424, 0.000000000000, -0.089989498258, -0.000000000000, -0.000187375699, 0.135083630681, -0.052411708981, 0.000000000000, 0.195097222924, 0.010743550956, 0.144453018904, -0.000000000000, 0.151672661304, -0.096461288631, -0.000000000000, 0.000000000000, 0.120994620025, -0.000000000000, 0.000000000000, -0.000561249268, -0.000000000000, -0.000000000000, 0.000000000000, 0.084827162325, 0.104766808450, -0.000000000000, -0.116250276566, -0.015521776862, 0.006002411246, 0.101760052145, 0.000000000000, 0.000000000000, -0.000000000000, 0.000127165797, -0.135902777314, 0.000000000000, -0.040248408914, -0.000000045093, 0.000000000000, -0.000000000000, -0.000000000000, -0.000000000000, -0.000000000049, -0.000000000000, 0.000000000000, -0.000230214908, 0.042236603796, 0.113292746246, -0.010708027519, -0.041669290513, 0.000479289214, 0.000000000000, -0.166907832026, -0.000000000000, 0.032339997590, -0.016297180206, 0.123718373477, -0.000000000000, 0.174218773842, -0.029093647376, 0.052054982632, -0.000000000000, 0.092677846551, -0.093461520970, -0.000000000000, 0.000000000000, 0.074392326176, -0.000000000000, -0.000000000000, 0.148077055812, 0.000000000000, 0.000000000000, 0.000000000000, 0.061243735254, 0.030820669606, -0.000000000000, -0.098827108741, -0.062392558903, 0.053267750889, 0.001786988112, -0.000000000000, 0.000000000000, -0.000000000000, -0.000000000000, -0.005846929271, 0.000000000000, -0.000812089187, 0.000000000000, -0.000000000000, -0.000000000000, 0.000000000000, 0.000000000000, -0.000000000000, -0.000000000000, 0.000000000000, 0.000000000000, 0.000801257323, -0.000480907038, 0.000802610419, -0.004399609286, -0.000427270366, 0.000000000000, -0.006227866746, 0.000000000000, -0.016993969679, -0.004400830716, 0.003769474803, 0.000000000000, 0.002453116002, -0.004357036669, 0.007458985783, 0.000000000000, 0.003346038284, -0.004537742585, 0.000000000000, -0.000000000000, 0.000382420898, -0.000000000000, 0.000000000000, -0.000382009603, -0.000000000000, 0.000000000000, -0.000000000000, 0.000201647694, 0.003434455022, -0.000000000000, -0.003758544102, -0.002490262501, -0.000137324852, -0.059362351894, -0.000000000000, 0.000000000000, -0.000000000000, -0.000687952852, 0.075678274035, -0.000000000000, 0.124461159110, -0.000125086022, -0.000000000000, 0.000000000000, -0.000000000000, -0.000000000000, -0.000453085726, 0.000000000000, -0.000000000000, -0.000001607814, -0.065853238106, -0.033652551472, -0.012938577682, -0.055457867682, -0.030864976346, -0.000000000000, 0.303480833769, -0.000000000000, -0.005913332105, 0.189448937774, 0.025717966259, -0.000000000000, -0.053192559630, -0.074225746095, -0.128047034144, -0.000000000000, -0.174827992916, 0.023315714672, -0.000000000000, -0.000000000000, 0.179690659046, -0.000000000000, -0.000000000000, -0.062985114753, -0.000000000000, -0.000000000000, 0.000000000000, -0.098194792867, -0.112365335226, -0.000000000000, 0.190781980753, 0.075817883015, 0.012766981497, -0.022280275822, 0.000000000000, 0.000000000000, 0.000000000000, -0.000003167258, 0.019861077890, -0.000000000000, 0.349951028824, 0.000001455086, 0.000000000000, 0.000000000000, -0.000000000000, -0.000000000000, 0.000103195882, -0.000000000000, -0.000000000000, -0.000018017838, -0.025189042091, -0.018256777897, -0.000410032022, -0.005715166684, 0.013405553997, 0.000000000000, 0.251662850380, -0.000000000000, 0.011520083994, 0.221955105662, 0.099455066025, -0.000000000000, 0.008928332478, 0.117416240275, -0.027030000463, 0.000000000000, -0.045122314245, -0.011789398268, 0.000000000000, 0.000000000000, 0.166199252009, -0.000000000000, 0.000000000000, 0.010871415958, 0.000000000000, 0.000000000000, -0.000000000000, -0.048395909369, -0.032513167709, 0.000000000000, 0.005181819666, 0.035207249224, -0.006226907950, -0.069959275424, 0.000000000000, 0.000000000000, 0.000000000000, 0.000000000000, 0.200761094689, 0.000000000000, 0.128310263157, -0.000096394258, -0.000000000000, -0.000000000000, 0.000000000000, -0.000000000000, 0.000000000002, -0.000000000000, 0.000000000000, -0.000003245577, -0.138141512871, -0.073022618890, -0.005865195766, 0.100728921592, -0.014159983955, -0.000000000000, 0.177508294582, -0.000000000000, 0.017498424277, 0.144743517041, -0.076361298561, -0.000000000000, -0.133065447211, 0.128612384200, -0.059320364147, -0.000000000000, -0.107412368059, 0.142249509692, -0.000000000000, -0.000000000000, 0.054056797177, -0.000000000000, 0.000000000000, -0.086072474718, -0.000000000000, -0.000000000000, 0.000000000000, -0.057625889778, -0.065467953682, 0.000000000000, 0.170681059361, 0.172138795257, -0.049183607101, 0.061936810613, -0.000000000000, -0.000000000000, -0.000000000000, -0.000000000081, -0.028407435864, 0.000000000000, -0.052182104439, -0.000000000000, -0.000000000000, -0.000000000000, 0.000000000000, 0.000000000000, -0.000000000000, 0.000000000000, -0.000000000000, -0.000003749931, 0.145310804248, 0.051894158125, -0.002051405609, -0.025514410809, 0.001728643780, -0.000000000000, -0.077015481889, 0.000000000000, 0.004401682410, -0.086387015879, 0.129499703646, 0.000000000000, 0.126097515225, -0.022390849888, 0.018089747056, 0.000000000000, 0.143182292581, -0.017520988360, -0.000000000000, 0.000000000000, -0.038047991693, 0.000000000000, -0.000000000000, 0.115566767752, 0.000000000000, -0.000000000000, 0.000000000000, 0.065103434026, 0.051298566163, -0.000000000000, -0.063434690237, -0.037743620574, -0.020368773490, 0.084686338902, -0.000000000000, -0.000000000000, -0.000000000000, -0.000060879134, -0.130713254213, 0.000000000000, -0.008881555870, 0.000292243203, -0.000000000000, 0.000063337902, 0.000000000000, -0.000000000000, 0.000000012012, -0.000000000000, -0.000000000000, -0.000000000000, 0.138895362616, 0.191864699125, 0.020047005266, -0.023795571178, 0.020113652572, 0.000000000000, -0.051583647728, -0.000000000000, -0.020288581029, -0.081472605467, -0.128785461187, -0.000000000000, 0.003541314742, -0.040658060461, 0.007693988737, -0.000000000000, 0.179017961025, -0.068297304213, -0.000000000000, 0.000000000000, -0.037294160575, 0.000000000000, -0.000000000000, 0.148699045181, -0.000000000000, -0.000000000000, -0.000000000000, 0.141394332051, 0.117448143661, -0.000000000000, -0.122812934220, -0.080418430269, 0.019213408232, 0.001786934678, -0.000000000000, 0.000000000000, 0.000000000000, -0.000000000000, -0.005846322514, 0.000000000000, -0.000812303333, 0.000000000000, -0.000000000000, 0.000000000000, 0.000000000000, 0.000000000000, 0.000000000000, 0.000000000000, -0.000000000000, -0.000000000000, 0.000801246497, -0.000480689225, 0.000795447791, -0.004399235360, -0.000425364764, -0.000000000000, -0.006227653008, -0.000000000000, -0.016994293779, -0.004400364123, 0.003769339528, -0.000000000000, 0.002453087131, -0.004356892314, 0.007458604872, -0.000000000000, 0.003346013837, -0.004537497181, 0.000000000000, 0.000000000000, 0.000382504426, -0.000000000000, 0.000000000000, -0.000381991500, 0.000000000000, -0.000000000000, -0.000000000000, 0.000201642935, 0.003434433136, 0.000000000000, -0.003757794155, -0.002489668084, -0.000146445120, 0.077223926783, 0.000000000000, -0.000000000000, 0.000000000000, -0.000002041095, -0.192571774125, -0.000000000000, -0.209880679846, -0.000004752608, 0.000000000000, -0.000000000000, -0.000000000000, 0.000000000000, -0.000000000068, -0.000000000000, 0.000000000000, 0.001196834259, 0.086166962981, -0.055055413395, -0.003879110329, -0.072019420564, -0.009039075114, -0.000000000000, -0.101817764342, -0.000000000000, 0.018294816837, 0.005433675367, 0.130579024553, -0.000000000000, 0.042039126158, -0.090599671006, -0.056234948337, -0.000000000000, 0.057525478303, -0.088674739003, -0.000000000000, 0.000000000000, 0.064523041248, -0.000000000000, -0.000000000000, 0.052763443440, -0.000000000000, 0.000000000000, -0.000000000000, -0.011226432398, -0.048741713166, -0.000000000000, -0.106108359993, -0.167004466057, 0.026259658858, -0.138903856277, 0.000000000000, -0.000000000000, -0.000000000000, -0.000000003946, 0.177830278873, -0.000000000000, -0.001009501633, -0.014206657186, -0.000000000000, 0.000000000120, -0.000000000000, -0.000000000000, 0.000000000000, 0.000000000000, -0.000000000000, -0.000111419482, -0.156226828694, -0.098449662328, -0.002919720020, -0.045113407075, -0.029005432501, -0.000000000000, 0.099767170846, 0.000000000000, 0.048709936440, 0.146288603544, -0.035991407931, 0.000000000000, -0.130312040448, 0.088242970407, -0.186656460166, 0.000000000000, -0.195991784334, 0.174595892429, -0.000000000000, -0.000000000000, -0.032452959567, 0.000000000000, -0.000000000000, 0.068850152194, -0.000000000000, 0.000000000669, -0.000000000000, -0.092095360160, -0.135913893580, -0.000000000000, 0.146013572812, 0.153454527259, -0.049745045602, -0.068792730570, -0.000000000000, -0.000000000000, -0.000000000000, -0.003990030847, 0.258300572634, -0.000000000000, -0.292800515890, -0.008112849668, -0.000000000000, -0.000342071842, -0.000000000000, 0.000000000000, -0.000023689479, 0.000000000000, -0.000000000000, -0.000930323673, 0.132771492004, 0.047871354967, -0.041401155293, 0.087413638830, -0.043191615492, -0.000000000000, -0.061324283481, 0.000000000000, 0.037865594029, -0.376149326563, 0.182936698198, -0.000000000000, 0.163247793913, -0.021829662845, 0.101242251694, -0.000000000000, 0.139062896371, 0.093219742179, -0.000000000000, -0.000000000000, -0.245973557234, -0.000000000000, -0.000000000000, 0.048252493143, -0.000000000000, 0.000000037430, -0.000000000000, 0.039080891758, -0.055305480957, -0.000000000000, -0.019848752767, -0.031375277787, -0.014280049130, -0.006546212360, -0.000000000000, -0.000000000000, -0.000000000000, 0.000117756077, -0.075911521912, 0.000000000000, -0.048614919186, -0.001840569661, 0.000000000000, -0.000026623846, -0.000000000000, -0.000000000000, -0.000016873410, -0.000000000000, 0.000000000000, 0.000001237114, 0.088158443570, 0.106487385929, -0.007790690754, -0.020070392638, 0.025121744722, -0.000000000000, -0.167851701379, -0.000000000000, -0.020073670894, -0.084140643477, -0.174698144197, -0.000000000000, 0.156030893326, -0.029679482803, 0.093037359416, -0.000000000000, 0.004428208806, -0.082352183759, -0.000000000000, -0.000000000000, -0.050500079989, -0.000000000000, -0.000000000000, 0.012192301452, -0.000000000000, -0.000000000000, 0.000000000000, 0.120125792921, 0.082779087126, -0.000000000000, -0.122704118490, -0.106593959033, -0.036864098161, -0.070522367954, 0.000000000000, -0.000000000000, -0.000000000000, -0.000005928676, 0.095774903893, -0.000000000000, 0.371900588274, -0.000004358770, -0.000000000000, 0.000000000000, -0.000000000000, 0.000000000000, 0.000285021146, -0.000000000000, 0.000000000000, -0.000137975105, -0.130652308464, -0.072458483279, -0.002171210246, -0.022826643661, 0.002722012810, 0.000000000000, 0.347342669964, -0.000000000000, -0.001706158044, 0.171810925007, -0.092264257371, -0.000000000000, -0.100470185280, 0.135445207357, -0.038366839290, 0.000000000000, -0.104049317539, -0.022980624810, 0.000000000000, -0.000000000000, 0.263716071844, 0.000000000000, -0.000000000000, -0.083481706679, 0.000000000000, 0.000000000000, 0.000000000000, -0.032570768148, -0.040032390505, -0.000000000000, 0.048381194472, 0.088701888919, -0.024366043508, 0.124835580587, -0.000000000000, 0.000000000000, -0.000000000000, -0.000079722355, -0.097617812455, -0.000000000000, -0.160665556788, -0.000000000663, -0.000000000000, -0.000000000000, 0.000000000000, -0.000000000000, -0.000000000000, -0.000000000000, 0.000000000000, -0.000561278197, 0.165145695210, 0.102562747896, -0.003005755832, -0.098081178963, -0.007289667148, 0.000000000000, -0.254041582346, -0.000000000000, 0.030817016959, -0.157718792558, 0.184034317732, 0.000000000000, 0.143994465470, -0.086527854204, 0.048292774707, -0.000000000000, 0.085928283632, -0.143652960658, -0.000000000000, -0.000000000000, -0.034841757268, 0.000000000000, -0.000000000000, 0.134916529059, 0.000000000000, 0.000000000000, 0.000000000000, 0.095374956727, 0.050548221916, -0.000000000000, -0.209408193827, -0.129066273570, 0.055954452604, 0.062261477113, 0.000000000000, -0.000000000000, 0.000000000000, 0.000000697840, -0.184889510274, -0.000000000000, -0.092513956130, -0.000000210360, -0.000000000000, -0.000000000000, -0.000000000000, 0.000000000000, -0.000000000000, -0.000000000000, -0.000000000000, 0.007995394059, 0.226752787828, -0.020431801677, -0.000940008147, -0.010230336338, -0.005095114931, 0.000000000000, -0.234208658338, -0.000000000000, -0.002253304003, -0.215357631445, 0.268647372723, -0.000000000000, 0.121631890535, -0.032268203795, -0.017017103732, -0.000000000000, 0.206973671913, -0.151022613049, 0.000000000000, -0.000000000000, -0.184105560184, -0.000000000000, -0.000000000000, 0.179092347622, -0.000000000000, 0.000000000000, -0.000000000000, 0.022269794717, -0.020680388436, -0.000000000000, -0.038095775992, -0.046905115247, 0.055729195476, 0.050008032471, 0.000000000000, -0.000000000000, -0.000000000000, -0.000026137819, -0.097294725478, -0.000000000000, 0.227337077260, 0.000227588782, -0.000000000000, -0.000000000015, 0.000000000000, -0.000000000000, 0.000039447750, -0.000000000000, -0.000000000000, -0.000000196217, -0.003729914082, 0.098521769047, -0.004380417522, -0.006980092730, 0.020247181877, -0.000000000000, 0.013161013834, -0.000000000000, -0.027848357335, -0.040470648557, -0.096060842276, 0.000000000000, 0.170640662313, 0.067341931164, 0.034656301141, -0.000000000000, 0.076481074095, -0.102915562689, 0.000000000000, -0.000000000000, 0.146782636642, 0.000000000000, 0.000000000000, 0.141102552414, 0.000000000000, -0.000000000000, 0.000000000000, 0.042787399143, 0.034711971879, -0.000000000000, -0.100251927972, -0.046502262354, -0.019552031532, 0.130212128162, -0.000000000000, -0.000000000000, -0.000000000000, 0.000565169554, 0.007384790108, -0.000000000000, -0.028476929292, 0.000002277161, -0.000000000000, 0.000000000050, 0.000000000000, -0.000000000000, -0.000000086849, -0.000000000000, -0.000000000000, -0.000092068840, 0.094955161214, 0.115495420992, -0.009973310865, -0.017894430086, 0.022733839229, -0.000000000000, -0.059674117714, -0.000000000000, 0.042115181684, 0.006576668937, 0.076611220837, -0.000000000000, 0.107488662004, 0.011418445036, 0.073825366795, 0.000000000000, 0.094419650733, 0.008497150615, -0.000000000000, 0.000000000000, 0.123579874635, 0.000000000000, -0.000000000000, 0.124743327498, -0.000000000000, 0.000000000000, -0.000000000000, 0.083821304142, 0.084212549031, -0.000000000000, -0.055385693908, -0.033083852381, 0.040900424123, -0.001972237602, -0.000000000000, -0.000000000000, -0.000000000000, -0.000000000000, 0.008097452112, -0.000000000000, -0.005757038947, 0.000000000000, -0.000000000000, -0.000000000000, -0.000000000000, -0.000000000000, 0.000000000000, -0.000000000000, 0.000000000000, -0.000000000000, -0.007521824911, 0.001913292916, -0.000058885395, -0.000461386342, -0.000074425734, -0.000000000000, -0.000841305940, -0.000000000000, -0.016377681866, -0.008865783922, -0.002774005756, -0.000000000000, -0.001349038794, -0.001131522469, 0.000025349145, 0.000000000000, 0.001226258231, 0.005656028632, -0.000000000000, -0.000000000000, -0.003758653067, -0.000000000000, -0.000000000000, -0.004772329237, 0.000000000000, 0.000000000000, -0.000000000000, -0.003665411612, -0.001815775177, -0.000000000000, 0.001838348107, 0.001443595742, -0.001910576015, -0.178043439984, -0.000000000000, -0.000000000000, -0.000000000000, -0.000240413880, 0.025286883116, 0.000000000000, -0.030496446416, 0.004589761142, -0.000000000000, -0.000000000000, 0.000000000000, 0.000000000000, -0.003980204463, 0.000000000000, 0.000000000000, -0.010452806950, -0.216492488980, -0.258318305016, -0.023893445730, 0.013724852353, -0.037225168198, -0.000000000000, 0.274721682072, -0.000000000000, -0.006791916676, 0.179841578007, 0.036584816873, -0.000000000000, -0.266769289970, -0.034723605961, -0.199044361711, 0.000000000000, -0.214846417308, 0.139151573181, 0.000000000000, -0.000000000000, 0.243931218982, 0.000000000000, -0.000000000000, -0.177187457681, -0.000000000000, -0.000000000000, 0.000000000000, -0.215542927384, -0.181547909975, -0.000000000000, 0.025979096070, 0.081870853901, -0.028128858656, -0.041810754687, -0.000000000000, 0.000000000000, -0.000000000000, -0.000000000001, 0.126581400633, -0.000000000000, -0.035561684519, -0.000139747892, -0.000000000000, 0.000000000000, -0.000000000000, -0.000000000000, 0.000000000000, -0.000000000000, -0.000000000000, 0.000087736546, -0.041538562626, -0.079887948930, -0.004278160166, 0.036922577769, -0.001787209418, 0.000000000000, 0.084219977260, -0.000000000000, 0.070682600141, 0.068330273032, -0.003110351739, -0.000000000000, -0.031217552722, -0.002076770412, -0.066892653704, -0.000000000000, -0.086442008615, 0.079904958606, 0.000000000000, -0.000000000000, -0.038347393274, 0.000000000000, 0.000000000000, -0.052483007312, -0.000000000000, -0.000000000000, 0.000000000000, -0.049735095352, -0.073330119252, -0.000000000000, 0.084371410310, -0.025935292244, -0.001919511240, -0.018322341144, -0.000000000000, 0.000000000000, 0.000000000000, -0.000000000000, 0.139084666967, 0.000000000000, -0.041904460639, 0.000045526333, 0.000000000000, -0.000000000000, -0.000000000000, -0.000000000000, 0.000000000000, -0.000000000000, 0.000000000000, -0.000010250465, 0.009109272622, -0.057064510882, -0.009457454085, 0.084921911359, 0.000501895265, 0.000000000000, 0.186724618077, 0.000000000000, 0.011282365769, 0.158196106553, -0.042696837336, 0.000000000000, -0.002025805879, 0.033069442958, 0.022827403620, -0.000000000000, -0.006367893890, 0.067360438406, -0.000000000000, 0.000000000000, 0.069915592670, -0.000000000000, 0.000000000000, -0.082945488393, -0.000000000000, -0.000000000000, -0.000000000000, -0.013299307786, -0.031707718968, -0.000000000000, 0.172703668475, 0.070209011436, -0.018477875739, 0.039793789387, -0.000000000000, -0.000000000000, 0.000000000000, 0.000261516543, -0.060068923980, -0.000000000000, -0.094518758357, -0.000028000040, 0.000000000000, 0.000000004782, -0.000000000000, -0.000000000000, -0.000000022215, -0.000000000000, 0.000000000000, 0.009904784150, 0.112768404186, 0.119031488895, -0.010218430310, -0.089906312525, -0.003607187886, -0.000000000000, -0.228799268603, -0.000000000000, -0.000110119698, -0.205079957843, 0.236537396908, -0.000000000000, 0.042242348194, -0.086519077420, -0.028858324513, -0.000000000000, 0.020337259397, 0.045206077397, -0.000000000000, -0.000000000000, 0.079782642424, -0.000000000000, -0.000000000000, 0.074939399958, -0.000000000000, -0.000000000000, 0.000000000000, 0.023868774995, 0.017760230228, 0.000000000000, -0.208129748702, -0.127105906606, 0.054026585072, -0.045342326164, -0.000000000000, -0.000000000000, -0.000000000000, -0.000000000000, 0.120794154704, -0.000000000000, -0.068437144160, 0.002593900776, -0.000000000000, 0.000000000000, -0.000000000000, -0.000000000000, -0.000000000000, 0.000000000000, -0.000000000000, -0.000001378117, -0.184856936336, -0.133277907968, -0.006564125419, 0.160192415118, -0.017543371767, -0.000000000000, 0.277768015862, -0.000000000000, 0.054347414523, 0.017727717757, -0.078473918140, -0.000000000000, -0.071720898151, 0.139150083065, -0.165991708636, -0.000000000000, -0.172691434622, 0.288057416677, 0.000000000000, -0.000000000000, -0.031214004382, 0.000000000000, -0.000000000000, -0.108599014580, -0.000000000000, -0.000000000005, -0.000000000000, -0.126594752073, -0.152306258678, -0.000000000000, 0.178196653724, 0.118274979293, -0.076173357666, -0.120505347848, -0.000000000000, -0.000000000000, -0.000000000000, -0.000036951256, 0.149037882686, -0.000000000000, -0.166907057166, 0.009101497009, 0.000000000000, -0.000000107645, -0.000000000000, -0.000000000000, -0.000000000000, 0.000000000000, 0.000000000000, -0.000005159136, -0.069614991546, 0.169868156314, -0.007087255828, 0.070757023990, 0.000689242326, -0.000000000000, 0.083766087890, -0.000000000000, 0.051469855011, -0.219432383776, -0.285918056965, -0.000000000000, -0.096724845469, -0.030921503901, -0.010142662562, -0.000000000000, -0.056397870183, 0.159057006240, -0.000000000000, 0.000000000000, -0.169541925192, -0.000000000000, -0.000000000000, 0.055334616452, -0.000000000000, -0.000000000036, 0.000000000000, -0.050939571112, -0.000235274376, -0.000000000000, -0.001788859721, 0.057876426727, -0.027493737638, -0.096674390137, 0.000000000000, -0.000000000000, 0.000000000000, -0.000000001169, 0.032731812447, -0.000000000000, -0.053614072502, 0.003350086743, -0.000000000000, -0.000000000001, -0.000000000000, -0.000000000000, 0.000000000000, -0.000000000000, -0.000000000000, -0.000002509542, -0.202468335629, -0.144758582115, -0.008665309288, 0.082126028836, -0.019389392808, -0.000000000000, 0.259999096394, -0.000000000000, 0.057837996632, 0.038575191051, -0.072217188776, -0.000000000000, -0.103778116405, 0.167922571301, -0.121816799045, -0.000000000000, -0.201463848352, 0.167259290814, 0.000000000000, -0.000000000000, -0.061052549630, -0.000000000000, -0.000000000000, -0.070747986436, 0.000000000000, -0.000000000007, -0.000000000000, -0.096512824297, -0.082563608885, -0.000000000000, 0.031724758446, 0.175178140402, -0.068720906973, 0.046237293631, -0.000000000000, -0.000000000000, -0.000000000000, -0.000001019708, -0.115657657385, 0.000000000000, -0.002915645717, 0.000028000723, -0.000000000000, -0.000000002126, 0.000000000000, 0.000000000000, -0.000000000377, -0.000000000000, -0.000000000000, -0.000000000000, 0.051785953343, 0.154569104314, 0.000341982523, -0.052661761642, 0.022177107632, -0.000000000000, -0.146778360009, -0.000000000000, -0.024248665199, -0.148451596498, -0.090928919613, -0.000000000000, 0.082626454532, -0.053351756185, 0.052487477660, 0.000000000000, 0.129490390420, -0.111673690379, 0.000000000000, -0.000000000000, -0.001274280599, -0.000000000000, 0.000000000000, 0.116179652512, -0.000000000000, 0.000000000000, 0.000000000000, 0.076145611703, 0.090481683612, -0.000000000000, -0.101204790175, -0.088880568743, 0.000613378594, 0.004256853368, -0.000000000000, -0.000000000000, -0.000000000000, 0.000056474295, 0.058227114379, 0.000000000000, -0.134549081326, -0.000000043302, -0.000000000000, 0.000000000000, -0.000000000000, 0.000000000000, 0.000000000000, 0.000000000000, 0.000000000000, 0.000019240591, 0.017118901014, 0.014810777269, -0.008026707917, 0.022071026266, -0.001481351443, 0.000000000000, -0.078890152276, 0.000000000000, 0.001783708925, -0.102139532566, 0.075060263276, -0.000000000000, 0.046188343316, -0.007467128336, 0.002396809403, 0.000000000000, 0.035369955003, 0.055737543851, -0.000000000000, -0.000000000000, -0.085082516074, 0.000000000000, -0.000000000000, -0.024194732308, 0.000000000000, -0.000000000000, -0.000000000000, -0.038365617394, -0.005050569307, -0.000000000000, -0.011534059420, -0.015385231934, -0.012804084457, -0.031411938369, -0.000000000000, -0.000000000000, -0.000000000000, -0.000000000072, 0.020770456642, -0.000000000000, -0.031248670071, -0.000067685556, 0.000000000000, 0.000000000000, -0.000000000000, -0.000000000000, -0.000000000455, -0.000000000000, -0.000000000000, -0.000044881646, -0.127139836550, -0.040484674275, -0.004622476641, 0.009028964676, 0.002212853869, 0.000000000000, 0.047045931220, -0.000000000000, 0.011325498112, 0.008976900950, -0.072167463601, 0.000000000000, -0.113246388733, -0.052828859538, -0.035522595048, -0.000000000000, -0.056796669960, 0.028570907190, -0.000000000000, 0.000000000000, 0.006952794269, -0.000000000000, -0.000000000000, -0.073947235942, 0.000000000000, -0.000000000000, 0.000000000000, -0.051733773202, -0.051885738969, -0.000000000000, 0.095165461302, 0.011770633981, -0.023964487016, -0.040457312018, -0.000000000000, -0.000000000000, -0.000000000000, -0.000208743353, -0.330426245928, -0.000000000000, -0.025546161458, -0.000781892741, -0.000000000000, 0.000026466823, -0.000000000000, -0.000000000000, 0.002191889100, -0.000000000000, 0.000000000000, -0.000209425896, -0.109350211918, 0.159629791975, -0.008565480821, -0.058473639190, 0.034975949675, 0.000000000000, -0.045530367643, -0.000000000000, 0.005278483033, 0.126273617148, -0.025674570352, 0.000000000000, -0.017148030922, 0.039870332927, 0.018307995051, -0.000000000000, 0.118780881166, -0.096685759723, -0.000000000000, -0.000000000000, 0.139348879457, 0.000000000000, -0.000000000000, 0.172211259604, 0.000000000000, -0.000000000000, -0.000000000000, -0.013221872039, 0.019534328952, -0.000000000000, -0.264721333981, -0.169989287853, -0.024294352159, 0.064949750900, 0.000000000000, -0.000000000000, 0.000000000000, -0.000720672193, 0.062910959125, 0.000000000000, -0.124307736754, -0.000026068737, 0.000000000000, -0.000000000243, -0.000000000000, -0.000000000000, -0.000000189283, 0.000000000000, 0.000000000000, -0.010890117846, 0.065859526396, -0.098606646061, -0.005471757147, -0.109218448400, -0.001884114114, -0.000000000000, -0.292682737112, -0.000000000000, 0.003429734614, -0.174840509892, 0.105273932219, -0.000000000000, 0.102174803615, -0.094933778048, -0.019502058625, 0.000000000000, 0.112938925624, -0.017238525674, -0.000000000000, -0.000000000000, -0.013237234205, -0.000000000000, 0.000000000000, 0.057403448969, 0.000000000000, -0.000000000000, -0.000000000000, 0.033298540860, -0.011315420270, 0.000000000000, -0.142637580633, -0.126650691032, 0.037939883769, -0.087992705405, 0.000000000000, 0.000000000000, -0.000000000000, -0.000067977002, -0.018852893263, -0.000000000000, 0.328053385019, -0.000006589684, -0.000000000000, -0.000000000000, -0.000000000000, -0.000000000000, 0.002474262612, -0.000000000000, -0.000000000000, -0.000219201742, -0.189651116729, -0.162579193711, -0.003562062746, -0.022259380668, -0.004287682939, -0.000000000000, 0.299288719893, -0.000000000000, -0.003673239378, 0.211657598615, -0.213915213943, 0.000000000000, -0.135865598917, 0.052478119731, -0.101184360683, -0.000000000000, -0.222040817142, -0.039125014096, -0.000000000000, -0.000000000000, 0.297103136778, -0.000000000000, 0.000000000000, -0.130132317543, -0.000000000000, -0.000000000000, 0.000000000000, -0.144864603877, -0.110373325646, -0.000000000000, -0.082999549806, -0.016502209008, -0.007476844825, -0.004168196116, 0.000000000000, -0.000000000000, -0.000000000000, -0.000000000000, 0.036140762269, -0.000000000000, 0.093852929771, -0.000000005513, 0.000000000000, 0.000000000000, -0.000000000000, 0.000000000000, -0.000000000577, 0.000000000000, -0.000000000000, -0.000001790722, -0.012112479657, 0.041960828006, -0.003936036024, -0.037935942411, -0.011817937717, 0.000000000000, 0.074090979993, -0.000000000000, -0.008006435819, 0.147000551224, -0.007880082354, 0.000000000000, -0.002530802507, -0.042332932353, 0.013312441297, -0.000000000000, -0.002790242201, -0.013019002974, -0.000000000000, 0.000000000000, 0.087725691497, 0.000000000000, -0.000000000000, 0.014881234616, 0.000000000000, -0.000000000000, 0.000000000000, 0.001592705259, -0.001475792029, -0.000000000000, 0.087983250618, 0.021740380675, -0.000852757832, 0.001602321165, 0.000000000000, 0.000000000000, 0.000000000000, 0.000000000000, -0.005060567986, -0.000000000000, -0.000840701279, 0.000000000000, 0.000000000000, 0.000000000000, -0.000000000000, -0.000000000000, -0.000000000000, -0.000000000000, 0.000000000000, -0.000000000000, 0.000646472676, -0.000316611491, 0.000572353019, -0.003289404092, -0.000304547051, -0.000000000000, -0.005488449708, -0.000000000000, -0.016993038356, -0.004310036078, 0.003447621828, 0.000000000000, 0.002301098546, -0.004118551966, 0.006862022448, -0.000000000000, 0.003185127862, -0.004208952654, -0.000000000000, -0.000000000000, 0.000411764195, -0.000000000000, -0.000000000000, -0.000299881853, 0.000000000000, -0.000000000000, -0.000000000000, 0.000115296061, 0.003254737239, -0.000000000000, -0.002876019571, -0.001688490156, -0.000409778906, -0.026502320543, -0.000000000000, -0.000000000000, -0.000000000000, -0.000000000000, 0.126357883215, 0.000000000000, 0.005996159744, -0.000637370744, -0.000000000000, 0.000000000000, 0.000000000000, -0.000000000000, 0.000000000000, -0.000000000000, -0.000000000000, -0.000000050540, -0.024124169722, 0.042273987085, -0.002103175968, 0.019806569442, 0.000737554277, 0.000000000000, 0.107678584754, -0.000000000000, 0.018162757158, 0.047013875097, 0.007022082340, -0.000000000000, -0.014303887263, 0.085206009448, -0.034916408360, -0.000000000000, -0.031687922776, 0.011599291116, -0.000000000000, -0.000000000000, 0.016221852973, 0.000000000000, 0.000000000000, 0.017175637186, -0.000000000000, -0.000000000000, 0.000000000000, -0.002096879994, -0.021446339786, -0.000000000000, 0.150522291660, 0.136493012309, -0.031283054501, -0.110084176064, -0.000000000000, -0.000000000000, 0.000000000000, 0.000062718806, -0.065645076334, -0.000000000000, 0.280628144741, -0.000576317718, 0.000000000000, -0.000000000000, 0.000000000000, -0.000000000000, 0.001834521652, 0.000000000000, -0.000000000000, 0.001035905560, -0.207668408751, -0.191754654050, -0.010331548750, -0.026967346668, -0.016996096820, -0.000000000000, 0.081973358989, -0.000000000000, -0.000440263306, 0.178298130631, -0.051670789719, -0.000000000000, -0.141427949071, 0.108887262642, -0.191550239921, 0.000000000000, -0.254954516888, -0.035155493766, 0.000000000000, 0.000000000000, 0.180837795138, -0.000000000000, -0.000000000000, -0.144438877702, 0.000000000000, -0.000000000000, 0.000000000000, -0.165709838271, -0.148952201009, -0.000000000000, -0.170046716928, 0.051202580333, -0.054194584489, -0.068399228156, 0.000000000000, 0.000000000000, -0.000000000000, -0.000000000055, 0.126608714461, 0.000000000000, 0.178911745548, -0.000003113107, -0.000000000000, 0.000000000000, -0.000000000000, -0.000000000000, -0.000000051715, -0.000000000000, -0.000000000000, -0.000028111703, -0.174817606807, -0.032813999802, 0.001660468755, -0.025306487456, 0.003258585697, -0.000000000000, 0.091319166124, -0.000000000000, -0.006210582331, 0.187553957105, -0.064631402493, 0.000000000000, -0.106267623603, -0.017808008939, -0.130883231759, -0.000000000000, -0.176426410675, 0.067992806435, 0.000000000000, -0.000000000000, 0.021031187847, -0.000000000000, -0.000000000000, -0.090502589941, -0.000000000000, 0.000000000000, 0.000000000000, -0.093587286770, -0.101020678878, 0.000000000000, 0.137304604053, 0.097265735269, -0.013531265780, -0.039318680763, -0.000000000000, -0.000000000000, -0.000000000000, 0.000000000000, 0.121456533670, -0.000000000000, 0.003972153179, -0.000000895570, -0.000000000000, -0.000000000000, -0.000000000000, -0.000000000000, 0.000000000000, -0.000000000000, 0.000000000000, -0.000003666582, -0.092882014811, -0.033059429377, -0.001499221195, 0.019836803898, -0.009906366467, 0.000000000000, 0.099138200283, -0.000000000000, 0.000838371227, 0.176880732179, -0.103713631630, 0.000000000000, -0.087301127613, -0.019949970767, -0.001732231816, -0.000000000000, -0.057947505265, 0.086207084358, -0.000000000000, 0.000000000000, 0.142545387149, -0.000000000000, -0.000000000000, -0.063257522881, -0.000000000000, 0.000000000000, -0.000000000000, -0.033573035151, -0.007116316818, -0.000000000000, 0.115280628204, 0.018412338570, -0.026504691690, -0.128738448024, -0.000000000000, 0.000000000000, 0.000000000000, -0.000173619861, -0.009549659677, -0.000000000000, 0.010920606554, -0.001079909154, -0.000000000000, -0.000000000000, -0.000000000000, 0.000000000000, -0.002601812594, -0.000000000000, -0.000000000000, 0.000060565264, -0.091086819768, -0.060099624097, -0.011115356348, -0.039506681263, -0.018205611035, -0.000000000000, 0.057120345533, -0.000000000000, -0.007078994531, 0.175762370229, -0.171001523733, 0.000000000000, -0.114651836455, -0.022790286690, -0.092831403017, 0.000000000000, -0.156860187650, -0.073160067201, -0.000000000000, 0.000000000000, 0.141206994653, -0.000000000000, 0.000000000000, -0.117970213294, 0.000000000000, -0.000000000000, 0.000000000000, -0.129656836390, -0.108542121947, -0.000000000000, 0.006302870810, -0.084778234363, -0.035942204297, 0.054452281445, -0.000000000000, -0.000000000000, -0.000000000000, 0.000002487930, -0.025396531448, -0.000000000000, -0.109204545617, -0.000000000000, -0.000000000000, -0.000000000000, -0.000000000000, -0.000000000000, 0.000000000000, -0.000000000000, 0.000000000000, -0.000004248992, 0.123256511986, 0.130072727799, -0.002192696091, -0.035288140178, 0.008448522538, 0.000000000000, -0.181444555521, -0.000000000000, -0.012382672168, -0.137230455875, 0.096755012870, 0.000000000000, 0.103447884321, -0.019340146333, 0.079234115779, -0.000000000000, 0.095841735601, -0.008243853226, 0.000000000000, 0.000000000000, -0.097748383880, 0.000000000000, 0.000000000000, 0.093562662601, 0.000000000000, 0.000000000000, -0.000000000000, 0.045487005264, 0.032300494611, -0.000000000000, -0.138097524643, -0.049101069570, 0.022656006739, 0.021997509524, -0.000000000000, -0.000000000000, 0.000000000000, -0.000000000000, 0.118057340384, -0.000000000000, -0.000680910016, -0.000084701482, -0.000000000000, 0.000000000000, -0.000000000000, -0.000000000000, 0.000000000000, -0.000000000000, -0.000000000000, -0.000025011719, -0.004548072349, -0.095648467541, -0.000375163247, 0.093756034970, 0.004726924002, 0.000000000000, 0.107899315655, -0.000000000000, 0.025552991778, 0.085240580142, 0.045728947967, -0.000000000000, 0.081890940666, 0.032758284360, 0.027771962807, -0.000000000000, 0.036673676223, 0.077477782965, -0.000000000000, -0.000000000000, 0.034721732140, 0.000000000000, 0.000000000000, 0.023438921198, -0.000000000000, -0.000000000000, -0.000000000000, 0.009029099718, 0.004905364942, -0.000000000000, 0.205551162362, 0.100831806660, -0.045868724585, -0.022245857865, -0.000000000000, -0.000000000000, 0.000000000000, -0.000024876394, -0.016759006307, -0.000000000000, 0.196580663323, -0.000001874773, 0.000000000000, 0.000000000000, -0.000000000000, 0.000000000000, 0.000270991644, -0.000000000000, -0.000000000000, 0.000106808810, -0.023767566308, -0.080911464989, -0.000485298835, -0.013482457027, -0.008961630985, 0.000000000000, 0.172112137079, -0.000000000000, -0.006122190505, 0.023119457066, -0.018136646599, -0.000000000000, -0.042336568236, 0.080726347864, -0.047036498785, 0.000000000000, -0.104141749442, -0.042988639325, 0.000000000000, 0.000000000000, 0.153160378337, 0.000000000000, 0.000000000000, -0.050621941686, -0.000000000000, 0.000000000000, 0.000000000000, -0.052216626704, -0.046228885651, -0.000000000000, -0.045613419265, -0.027396284044, -0.005050930195, 0.035884004086, 0.000000000000, -0.000000000000, -0.000000000000, -0.000000710215, -0.115832380950, -0.000000000000, -0.031245697290, -0.000041183899, -0.000000000000, 0.000000171272, 0.000000000000, 0.000000000000, -0.000000000226, -0.000000000000, 0.000000000000, -0.000000000000, 0.067509151995, 0.148758873343, -0.000649154652, -0.004697351251, 0.016499223188, -0.000000000000, -0.128094524145, -0.000000000000, -0.006535504013, -0.032416135073, -0.062992356718, -0.000000000000, 0.141953736544, -0.025734977797, 0.043491654098, 0.000000000000, 0.083452321589, -0.107701338828, -0.000000000000, 0.000000000000, -0.007633987814, -0.000000000000, 0.000000000000, 0.183102831244, -0.000000000000, 0.000000000000, -0.000000000000, 0.076778464019, 0.046994823962, -0.000000000000, -0.091320559382, -0.037435974926, -0.000937390199};
#endif

#endif
